<?xml version="1.0"?>
<opencv_storage>
<stage11>
  <maxWeakCount>21</maxWeakCount>
  <stageThreshold>-1.5240846872329712e+00</stageThreshold>
  <weakClassifiers>
    <_>
      <internalNodes>
        0 -1 90505 5.9433245658874512e-01</internalNodes>
      <leafValues>
        -6.9047617912292480e-01 4.7826087474822998e-01</leafValues></_>
    <_>
      <internalNodes>
        0 -1 252 2.9574256390333176e-02</internalNodes>
      <leafValues>
        -2.3564505577087402e-01 4.1371783614158630e-01</leafValues></_>
    <_>
      <internalNodes>
        0 -1 82114 1.2027863413095474e-02</internalNodes>
      <leafValues>
        8.6164742708206177e-02 -5.9759634733200073e-01</leafValues></_>
    <_>
      <internalNodes>
        0 -1 11900 1.1658491566777229e-03</internalNodes>
      <leafValues>
        1.6089887917041779e-01 -3.4374547004699707e-01</leafValues></_>
    <_>
      <internalNodes>
        0 -1 44573 -3.1612079590559006e-02</internalNodes>
      <leafValues>
        -5.2998840808868408e-01 6.4934954047203064e-02</leafValues></_>
    <_>
      <internalNodes>
        0 -1 151579 5.1084869483020157e-05</internalNodes>
      <leafValues>
        -1.8134762346744537e-01 2.5717177987098694e-01</leafValues></_>
    <_>
      <internalNodes>
        0 -1 151660 2.9910835437476635e-03</internalNodes>
      <leafValues>
        6.3416384160518646e-02 -1.</leafValues></_>
    <_>
      <internalNodes>
        0 -1 70077 -8.9669937733560801e-04</internalNodes>
      <leafValues>
        3.5247346758842468e-01 -1.3831086456775665e-01</leafValues></_>
    <_>
      <internalNodes>
        0 -1 150082 3.3166956156492233e-02</internalNodes>
      <leafValues>
        -1.3643814623355865e-01 3.9119714498519897e-01</leafValues></_>
    <_>
      <internalNodes>
        0 -1 106670 -3.0357459763763472e-05</internalNodes>
      <leafValues>
        2.1187755465507507e-01 -2.4529962241649628e-01</leafValues></_>
    <_>
      <internalNodes>
        0 -1 144461 5.5624069646000862e-03</internalNodes>
      <leafValues>
        9.1267690062522888e-02 -5.9735810756683350e-01</leafValues></_>
    <_>
      <internalNodes>
        0 -1 63177 2.4290392175316811e-02</internalNodes>
      <leafValues>
        2.1532560884952545e-01 -2.9194304347038269e-01</leafValues></_>
    <_>
      <internalNodes>
        0 -1 12388 2.6193585246801376e-02</internalNodes>
      <leafValues>
        -1.3734272122383118e-01 3.9872980117797852e-01</leafValues></_>
    <_>
      <internalNodes>
        0 -1 91315 -2.4865115992724895e-03</internalNodes>
      <leafValues>
        -4.7043511271476746e-01 1.2134630978107452e-01</leafValues></_>
    <_>
      <internalNodes>
        0 -1 21584 -3.2103876583278179e-03</internalNodes>
      <leafValues>
        -8.6152362823486328e-01 4.5311167836189270e-02</leafValues></_>
    <_>
      <internalNodes>
        0 -1 25265 7.4443209450691938e-04</internalNodes>
      <leafValues>
        -9.7386173903942108e-02 5.5966186523437500e-01</leafValues></_>
    <_>
      <internalNodes>
        0 -1 156676 -7.4802344897761941e-05</internalNodes>
      <leafValues>
        2.4388764798641205e-01 -1.8581008911132813e-01</leafValues></_>
    <_>
      <internalNodes>
        0 -1 4986 -3.2233459933195263e-05</internalNodes>
      <leafValues>
        2.3820756375789642e-01 -2.0901088416576385e-01</leafValues></_>
    <_>
      <internalNodes>
        0 -1 25663 -4.1477223858237267e-03</internalNodes>
      <leafValues>
        -5.2287250757217407e-01 9.0828038752079010e-02</leafValues></_>
    <_>
      <internalNodes>
        0 -1 344 -4.6331860125064850e-02</internalNodes>
      <leafValues>
        6.6305345296859741e-01 -8.1735931336879730e-02</leafValues></_>
    <_>
      <internalNodes>
        0 -1 125513 1.4790222048759460e-03</internalNodes>
      <leafValues>
        8.3739280700683594e-02 -6.2524467706680298e-01</leafValues></_></weakClassifiers></stage11>
</opencv_storage>
