<?xml version="1.0"?>
<opencv_storage>
<stage18>
  <maxWeakCount>10</maxWeakCount>
  <stageThreshold>-1.6189389228820801e+00</stageThreshold>
  <weakClassifiers>
    <_>
      <internalNodes>
        0 -1 113564 -1.3977698981761932e-03</internalNodes>
      <leafValues>
        1. -7.3460537195205688e-01</leafValues></_>
    <_>
      <internalNodes>
        0 -1 160760 -3.2233459933195263e-05</internalNodes>
      <leafValues>
        6.2120914459228516e-01 -4.1898843646049500e-01</leafValues></_>
    <_>
      <internalNodes>
        0 -1 133574 -9.3774998094886541e-04</internalNodes>
      <leafValues>
        4.4071993231773376e-01 -3.8016307353973389e-01</leafValues></_>
    <_>
      <internalNodes>
        0 -1 61813 -8.6868286132812500e-02</internalNodes>
      <leafValues>
        8.4037154912948608e-01 -1.7966823279857635e-01</leafValues></_>
    <_>
      <internalNodes>
        0 -1 151896 -4.0727689338382334e-05</internalNodes>
      <leafValues>
        5.0642317533493042e-01 -3.4484276175498962e-01</leafValues></_>
    <_>
      <internalNodes>
        0 -1 104200 -1.4159383135847747e-04</internalNodes>
      <leafValues>
        -4.3570706248283386e-01 3.9832416176795959e-01</leafValues></_>
    <_>
      <internalNodes>
        0 -1 157507 2.4863780708983541e-04</internalNodes>
      <leafValues>
        5.0620990991592407e-01 -4.3849784135818481e-01</leafValues></_>
    <_>
      <internalNodes>
        0 -1 85434 3.5899236798286438e-02</internalNodes>
      <leafValues>
        2.7462884783744812e-01 -7.2372806072235107e-01</leafValues></_>
    <_>
      <internalNodes>
        0 -1 36613 -5.7813583407551050e-04</internalNodes>
      <leafValues>
        8.9514726400375366e-01 -2.4109551310539246e-01</leafValues></_>
    <_>
      <internalNodes>
        0 -1 120131 1.3658942771144211e-04</internalNodes>
      <leafValues>
        -3.2126450538635254e-01 5.6881278753280640e-01</leafValues></_></weakClassifiers></stage18>
</opencv_storage>
