<?xml version="1.0"?>
<opencv_storage>
<stage8>
  <maxWeakCount>19</maxWeakCount>
  <stageThreshold>-1.3408352136611938e+00</stageThreshold>
  <weakClassifiers>
    <_>
      <internalNodes>
        0 -1 81483 7.8197419643402100e-01</internalNodes>
      <leafValues>
        -7.0146679878234863e-01 3.0000001192092896e-01</leafValues></_>
    <_>
      <internalNodes>
        0 -1 1279 3.4913133829832077e-02</internalNodes>
      <leafValues>
        -2.4449236690998077e-01 5.0873059034347534e-01</leafValues></_>
    <_>
      <internalNodes>
        0 -1 160692 -7.7779695857316256e-05</internalNodes>
      <leafValues>
        2.5863027572631836e-01 -2.0441916584968567e-01</leafValues></_>
    <_>
      <internalNodes>
        0 -1 149142 -3.3315551263513044e-05</internalNodes>
      <leafValues>
        2.1932151913642883e-01 -2.3518733680248260e-01</leafValues></_>
    <_>
      <internalNodes>
        0 -1 156117 -4.3377960537327453e-05</internalNodes>
      <leafValues>
        2.5222945213317871e-01 -2.0496097207069397e-01</leafValues></_>
    <_>
      <internalNodes>
        0 -1 158403 9.0683679445646703e-05</internalNodes>
      <leafValues>
        -2.0208334922790527e-01 2.6404166221618652e-01</leafValues></_>
    <_>
      <internalNodes>
        0 -1 150655 3.8538537919521332e-02</internalNodes>
      <leafValues>
        9.7312174737453461e-02 -7.4467653036117554e-01</leafValues></_>
    <_>
      <internalNodes>
        0 -1 129382 4.6465363993775100e-05</internalNodes>
      <leafValues>
        -1.8407838046550751e-01 2.8196588158607483e-01</leafValues></_>
    <_>
      <internalNodes>
        0 -1 23037 -4.9224693793803453e-04</internalNodes>
      <leafValues>
        -2.9446750879287720e-01 1.8397185206413269e-01</leafValues></_>
    <_>
      <internalNodes>
        0 -1 74204 -7.6463729143142700e-02</internalNodes>
      <leafValues>
        3.8935014605522156e-01 -1.6702778637409210e-01</leafValues></_>
    <_>
      <internalNodes>
        0 -1 33225 1.8074044957756996e-02</internalNodes>
      <leafValues>
        -1.2879085540771484e-01 5.1043647527694702e-01</leafValues></_>
    <_>
      <internalNodes>
        0 -1 15363 4.4989621639251709e-01</internalNodes>
      <leafValues>
        8.3474390208721161e-02 -7.6399451494216919e-01</leafValues></_>
    <_>
      <internalNodes>
        0 -1 126838 -3.3879927359521389e-03</internalNodes>
      <leafValues>
        -2.8248754143714905e-01 1.8632312119007111e-01</leafValues></_>
    <_>
      <internalNodes>
        0 -1 35792 2.0700614899396896e-02</internalNodes>
      <leafValues>
        1.5594288706779480e-01 -3.8845953345298767e-01</leafValues></_>
    <_>
      <internalNodes>
        0 -1 139434 8.6680471897125244e-02</internalNodes>
      <leafValues>
        -1.6505049169063568e-01 3.5377427935600281e-01</leafValues></_>
    <_>
      <internalNodes>
        0 -1 152276 1.1893706396222115e-02</internalNodes>
      <leafValues>
        7.8632600605487823e-02 -7.1415930986404419e-01</leafValues></_>
    <_>
      <internalNodes>
        0 -1 146632 4.0145608363673091e-04</internalNodes>
      <leafValues>
        -1.4952121675014496e-01 3.6847916245460510e-01</leafValues></_>
    <_>
      <internalNodes>
        0 -1 160482 2.1204813383519650e-03</internalNodes>
      <leafValues>
        9.1337636113166809e-02 -6.6752719879150391e-01</leafValues></_>
    <_>
      <internalNodes>
        0 -1 25264 1.2034743558615446e-03</internalNodes>
      <leafValues>
        -9.6876151859760284e-02 6.2289655208587646e-01</leafValues></_></weakClassifiers></stage8>
</opencv_storage>
