<?xml version="1.0"?>
<opencv_storage>
<stage0>
  <maxWeakCount>6</maxWeakCount>
  <stageThreshold>-1.3813068866729736e+00</stageThreshold>
  <weakClassifiers>
    <_>
      <internalNodes>
        0 -1 785 3.0801773071289063e-01</internalNodes>
      <leafValues>
        -7.5485008955001831e-01 8.4615385532379150e-01</leafValues></_>
    <_>
      <internalNodes>
        0 -1 72894 -2.0816500484943390e-01</internalNodes>
      <leafValues>
        6.9754946231842041e-01 -4.4817137718200684e-01</leafValues></_>
    <_>
      <internalNodes>
        0 -1 84103 -2.9847400728613138e-03</internalNodes>
      <leafValues>
        -7.5808393955230713e-01 2.8992220759391785e-01</leafValues></_>
    <_>
      <internalNodes>
        0 -1 20241 -7.4188798666000366e-02</internalNodes>
      <leafValues>
        -9.1410356760025024e-01 1.7388291656970978e-01</leafValues></_>
    <_>
      <internalNodes>
        0 -1 16098 -3.6974844988435507e-03</internalNodes>
      <leafValues>
        -8.0957895517349243e-01 1.8173073232173920e-01</leafValues></_>
    <_>
      <internalNodes>
        0 -1 54658 -9.9690724164247513e-03</internalNodes>
      <leafValues>
        -8.1397765874862671e-01 2.2418484091758728e-01</leafValues></_></weakClassifiers></stage0>
</opencv_storage>
