<?xml version="1.0"?>
<opencv_storage>
<stage2>
  <maxWeakCount>10</maxWeakCount>
  <stageThreshold>-1.5106281042098999e+00</stageThreshold>
  <weakClassifiers>
    <_>
      <internalNodes>
        0 -1 14411 1.0302269458770752e+00</internalNodes>
      <leafValues>
        -7.0962196588516235e-01 7.1428573131561279e-01</leafValues></_>
    <_>
      <internalNodes>
        0 -1 122264 -6.4453482627868652e-02</internalNodes>
      <leafValues>
        6.2742131948471069e-01 -3.4661343693733215e-01</leafValues></_>
    <_>
      <internalNodes>
        0 -1 98398 6.2425227952189744e-05</internalNodes>
      <leafValues>
        -2.4897144734859467e-01 4.5278918743133545e-01</leafValues></_>
    <_>
      <internalNodes>
        0 -1 137618 8.0710931797511876e-05</internalNodes>
      <leafValues>
        -3.0448827147483826e-01 3.8014069199562073e-01</leafValues></_>
    <_>
      <internalNodes>
        0 -1 157780 5.8679645007941872e-05</internalNodes>
      <leafValues>
        -2.9155498743057251e-01 3.4671971201896667e-01</leafValues></_>
    <_>
      <internalNodes>
        0 -1 26770 -1.6336396336555481e-02</internalNodes>
      <leafValues>
        -7.8345304727554321e-01 1.4542002975940704e-01</leafValues></_>
    <_>
      <internalNodes>
        0 -1 3009 9.0112462639808655e-03</internalNodes>
      <leafValues>
        1.8360006809234619e-01 -5.7570385932922363e-01</leafValues></_>
    <_>
      <internalNodes>
        0 -1 118252 6.2661769334226847e-05</internalNodes>
      <leafValues>
        -2.9910477995872498e-01 3.5948917269706726e-01</leafValues></_>
    <_>
      <internalNodes>
        0 -1 64267 6.7456479882821441e-05</internalNodes>
      <leafValues>
        -2.8442144393920898e-01 3.6677563190460205e-01</leafValues></_>
    <_>
      <internalNodes>
        0 -1 40319 -3.3517179545015097e-03</internalNodes>
      <leafValues>
        -9.1471213102340698e-01 1.0756343603134155e-01</leafValues></_></weakClassifiers></stage2>
</opencv_storage>
