<?xml version="1.0"?>
<opencv_storage>
<cascade>
  <stageType>BOOST</stageType>
  <featureType>HOG</featureType>
  <height>24</height>
  <width>24</width>
  <stageParams>
    <boostType>GAB</boostType>
    <minHitRate>9.9500000476837158e-01</minHitRate>
    <maxFalseAlarm>5.0000000000000000e-01</maxFalseAlarm>
    <weightTrimRate>9.4999998807907104e-01</weightTrimRate>
    <maxDepth>1</maxDepth>
    <maxWeakCount>100</maxWeakCount></stageParams>
  <featureParams>
    <maxCatCount>0</maxCatCount>
    <featSize>36</featSize></featureParams>
  <stageNum>20</stageNum>
  <stages>
    <!-- stage 0 -->
    <_>
      <maxWeakCount>4</maxWeakCount>
      <stageThreshold>-1.4911878108978271e+00</stageThreshold>
      <weakClassifiers>
        <_>
          <internalNodes>
            0 -1 112 1.2993603944778442e-02</internalNodes>
          <leafValues>
            8.1021898984909058e-01 -8.5875707864761353e-01</leafValues></_>
        <_>
          <internalNodes>
            0 -1 106 7.8410040587186813e-03</internalNodes>
          <leafValues>
            6.5194779634475708e-01 -7.7016907930374146e-01</leafValues></_>
        <_>
          <internalNodes>
            0 -1 51 2.0839940756559372e-02</internalNodes>
          <leafValues>
            7.4987888336181641e-01 -5.7499587535858154e-01</leafValues></_>
        <_>
          <internalNodes>
            0 -1 20 1.0476352646946907e-02</internalNodes>
          <leafValues>
            7.4675929546356201e-01 -6.1214047670364380e-01</leafValues></_></weakClassifiers></_>
    <!-- stage 1 -->
    <_>
      <maxWeakCount>8</maxWeakCount>
      <stageThreshold>-1.9720094203948975e+00</stageThreshold>
      <weakClassifiers>
        <_>
          <internalNodes>
            0 -1 162 9.7843825817108154e-02</internalNodes>
          <leafValues>
            -7.7025824785232544e-01 8.4210526943206787e-01</leafValues></_>
        <_>
          <internalNodes>
            0 -1 43 3.6204878240823746e-02</internalNodes>
          <leafValues>
            2.6830425858497620e-01 -8.5359907150268555e-01</leafValues></_>
        <_>
          <internalNodes>
            0 -1 112 3.3603191375732422e-02</internalNodes>
          <leafValues>
            3.2288745045661926e-01 -6.9962537288665771e-01</leafValues></_>
        <_>
          <internalNodes>
            0 -1 183 5.3727872669696808e-02</internalNodes>
          <leafValues>
            -3.5212317109107971e-01 6.8379944562911987e-01</leafValues></_>
        <_>
          <internalNodes>
            0 -1 0 2.4181753396987915e-03</internalNodes>
          <leafValues>
            -8.9950776100158691e-01 2.2688308358192444e-01</leafValues></_>
        <_>
          <internalNodes>
            0 -1 146 2.0012114197015762e-02</internalNodes>
          <leafValues>
            6.0028535127639771e-01 -4.5981538295745850e-01</leafValues></_>
        <_>
          <internalNodes>
            0 -1 176 5.7810485363006592e-02</internalNodes>
          <leafValues>
            -2.8903707861900330e-01 6.3656079769134521e-01</leafValues></_>
        <_>
          <internalNodes>
            0 -1 131 5.1357679069042206e-02</internalNodes>
          <leafValues>
            2.9996794462203979e-01 -8.8560944795608521e-01</leafValues></_></weakClassifiers></_>
    <!-- stage 2 -->
    <_>
      <maxWeakCount>9</maxWeakCount>
      <stageThreshold>-1.7722183465957642e+00</stageThreshold>
      <weakClassifiers>
        <_>
          <internalNodes>
            0 -1 117 9.7822293639183044e-02</internalNodes>
          <leafValues>
            -7.5892859697341919e-01 6.2025314569473267e-01</leafValues></_>
        <_>
          <internalNodes>
            0 -1 188 8.7317287921905518e-02</internalNodes>
          <leafValues>
            -3.5111257433891296e-01 6.4044541120529175e-01</leafValues></_>
        <_>
          <internalNodes>
            0 -1 169 3.2572589814662933e-02</internalNodes>
          <leafValues>
            3.1243014335632324e-01 -5.3032737970352173e-01</leafValues></_>
        <_>
          <internalNodes>
            0 -1 76 2.0283749327063560e-03</internalNodes>
          <leafValues>
            -9.2133414745330811e-01 2.1043293178081512e-01</leafValues></_>
        <_>
          <internalNodes>
            0 -1 158 3.2602421939373016e-02</internalNodes>
          <leafValues>
            2.0951190590858459e-01 -4.9105387926101685e-01</leafValues></_>
        <_>
          <internalNodes>
            0 -1 222 5.9997616335749626e-04</internalNodes>
          <leafValues>
            -8.8553941249847412e-01 1.4910954236984253e-01</leafValues></_>
        <_>
          <internalNodes>
            0 -1 103 1.2962240725755692e-02</internalNodes>
          <leafValues>
            4.4333371520042419e-01 -3.0737692117691040e-01</leafValues></_>
        <_>
          <internalNodes>
            0 -1 27 8.3482980728149414e-02</internalNodes>
          <leafValues>
            -2.2449895739555359e-01 8.3476543426513672e-01</leafValues></_>
        <_>
          <internalNodes>
            0 -1 18 8.2262411713600159e-02</internalNodes>
          <leafValues>
            -1.6902823746204376e-01 7.2003626823425293e-01</leafValues></_></weakClassifiers></_>
    <!-- stage 3 -->
    <_>
      <maxWeakCount>10</maxWeakCount>
      <stageThreshold>-1.9073939323425293e+00</stageThreshold>
      <weakClassifiers>
        <_>
          <internalNodes>
            0 -1 189 5.4880296811461449e-03</internalNodes>
          <leafValues>
            4.3434342741966248e-01 -7.6727271080017090e-01</leafValues></_>
        <_>
          <internalNodes>
            0 -1 57 7.0272688753902912e-03</internalNodes>
          <leafValues>
            1.7766632139682770e-01 -6.3434851169586182e-01</leafValues></_>
        <_>
          <internalNodes>
            0 -1 4 9.8717240616679192e-03</internalNodes>
          <leafValues>
            6.0142689943313599e-01 -2.6068812608718872e-01</leafValues></_>
        <_>
          <internalNodes>
            0 -1 97 9.7764162346720695e-03</internalNodes>
          <leafValues>
            4.0556141734123230e-01 -3.3419030904769897e-01</leafValues></_>
        <_>
          <internalNodes>
            0 -1 101 1.0776363313198090e-02</internalNodes>
          <leafValues>
            4.9054142832756042e-01 -2.5273984670639038e-01</leafValues></_>
        <_>
          <internalNodes>
            0 -1 124 7.5095057487487793e-02</internalNodes>
          <leafValues>
            -1.9072791934013367e-01 7.1294254064559937e-01</leafValues></_>
        <_>
          <internalNodes>
            0 -1 72 1.4382756315171719e-02</internalNodes>
          <leafValues>
            3.9392352104187012e-01 -2.5629851222038269e-01</leafValues></_>
        <_>
          <internalNodes>
            0 -1 1 9.4067320227622986e-02</internalNodes>
          <leafValues>
            -7.1950510144233704e-02 7.6810365915298462e-01</leafValues></_>
        <_>
          <internalNodes>
            0 -1 18 9.6137076616287231e-02</internalNodes>
          <leafValues>
            -1.4450034499168396e-01 6.4446282386779785e-01</leafValues></_>
        <_>
          <internalNodes>
            0 -1 169 2.4663537740707397e-02</internalNodes>
          <leafValues>
            2.6557111740112305e-01 -3.3428901433944702e-01</leafValues></_></weakClassifiers></_>
    <!-- stage 4 -->
    <_>
      <maxWeakCount>14</maxWeakCount>
      <stageThreshold>-1.7000370025634766e+00</stageThreshold>
      <weakClassifiers>
        <_>
          <internalNodes>
            0 -1 140 6.8716138601303101e-02</internalNodes>
          <leafValues>
            -7.3651635646820068e-01 4.7058823704719543e-01</leafValues></_>
        <_>
          <internalNodes>
            0 -1 72 7.9221185296773911e-03</internalNodes>
          <leafValues>
            2.7848112583160400e-01 -4.0696209669113159e-01</leafValues></_>
        <_>
          <internalNodes>
            0 -1 91 1.7566353082656860e-02</internalNodes>
          <leafValues>
            2.6995101571083069e-01 -3.7353110313415527e-01</leafValues></_>
        <_>
          <internalNodes>
            0 -1 48 1.5337287448346615e-02</internalNodes>
          <leafValues>
            4.0346530079841614e-01 -1.7463728785514832e-01</leafValues></_>
        <_>
          <internalNodes>
            0 -1 64 9.5470070838928223e-02</internalNodes>
          <leafValues>
            -1.6078443825244904e-01 5.2757829427719116e-01</leafValues></_>
        <_>
          <internalNodes>
            0 -1 36 7.4040547013282776e-02</internalNodes>
          <leafValues>
            -9.6472710371017456e-02 6.6166394948959351e-01</leafValues></_>
        <_>
          <internalNodes>
            0 -1 112 1.3321503996849060e-02</internalNodes>
          <leafValues>
            2.7871745824813843e-01 -3.4479343891143799e-01</leafValues></_>
        <_>
          <internalNodes>
            0 -1 160 1.7969841428566724e-04</internalNodes>
          <leafValues>
            -7.8325343132019043e-01 1.5563778579235077e-01</leafValues></_>
        <_>
          <internalNodes>
            0 -1 133 3.8604255765676498e-02</internalNodes>
          <leafValues>
            1.0976976156234741e-01 -5.3299504518508911e-01</leafValues></_>
        <_>
          <internalNodes>
            0 -1 134 1.7683120071887970e-01</internalNodes>
          <leafValues>
            -6.7004136741161346e-02 7.7242213487625122e-01</leafValues></_>
        <_>
          <internalNodes>
            0 -1 23 1.0157370567321777e-01</internalNodes>
          <leafValues>
            1.1428609490394592e-01 -7.0006674528121948e-01</leafValues></_>
        <_>
          <internalNodes>
            0 -1 103 2.0256398618221283e-01</internalNodes>
          <leafValues>
            -7.3932677507400513e-02 8.0953389406204224e-01</leafValues></_>
        <_>
          <internalNodes>
            0 -1 16 3.7178441882133484e-02</internalNodes>
          <leafValues>
            1.4844691753387451e-01 -4.8402941226959229e-01</leafValues></_>
        <_>
          <internalNodes>
            0 -1 75 1.5714008361101151e-02</internalNodes>
          <leafValues>
            2.0645661652088165e-01 -2.5581011176109314e-01</leafValues></_></weakClassifiers></_>
    <!-- stage 5 -->
    <_>
      <maxWeakCount>18</maxWeakCount>
      <stageThreshold>-1.7067191600799561e+00</stageThreshold>
      <weakClassifiers>
        <_>
          <internalNodes>
            0 -1 157 8.7517581880092621e-02</internalNodes>
          <leafValues>
            -7.2905528545379639e-01 2.2077922523021698e-01</leafValues></_>
        <_>
          <internalNodes>
            0 -1 162 9.6218079328536987e-02</internalNodes>
          <leafValues>
            -3.7536194920539856e-01 4.7361561655998230e-01</leafValues></_>
        <_>
          <internalNodes>
            0 -1 171 9.5548525452613831e-02</internalNodes>
          <leafValues>
            -9.1387853026390076e-02 8.4354305267333984e-01</leafValues></_>
        <_>
          <internalNodes>
            0 -1 182 1.9091721624135971e-02</internalNodes>
          <leafValues>
            -4.4986513257026672e-01 2.1130788326263428e-01</leafValues></_>
        <_>
          <internalNodes>
            0 -1 116 4.3115887790918350e-02</internalNodes>
          <leafValues>
            1.2104515731334686e-01 -5.7188063859939575e-01</leafValues></_>
        <_>
          <internalNodes>
            0 -1 30 2.7527898550033569e-02</internalNodes>
          <leafValues>
            2.5322768092155457e-01 -3.9585644006729126e-01</leafValues></_>
        <_>
          <internalNodes>
            0 -1 170 7.2604222223162651e-03</internalNodes>
          <leafValues>
            2.1403054893016815e-01 -2.8594186902046204e-01</leafValues></_>
        <_>
          <internalNodes>
            0 -1 179 6.8956777453422546e-02</internalNodes>
          <leafValues>
            -7.2419263422489166e-02 7.8182333707809448e-01</leafValues></_>
        <_>
          <internalNodes>
            0 -1 77 1.3272368907928467e-01</internalNodes>
          <leafValues>
            -9.2179045081138611e-02 6.8272393941879272e-01</leafValues></_>
        <_>
          <internalNodes>
            0 -1 213 7.8912653028964996e-02</internalNodes>
          <leafValues>
            -8.7021507322788239e-02 6.8157070875167847e-01</leafValues></_>
        <_>
          <internalNodes>
            0 -1 211 1.4434280991554260e-01</internalNodes>
          <leafValues>
            -7.8524827957153320e-02 7.3111140727996826e-01</leafValues></_>
        <_>
          <internalNodes>
            0 -1 43 6.3905134797096252e-02</internalNodes>
          <leafValues>
            7.1386002004146576e-02 -1.</leafValues></_>
        <_>
          <internalNodes>
            0 -1 9 3.5368598997592926e-02</internalNodes>
          <leafValues>
            1.5975093841552734e-01 -3.9239287376403809e-01</leafValues></_>
        <_>
          <internalNodes>
            0 -1 29 1.5384652651846409e-03</internalNodes>
          <leafValues>
            -6.5488767623901367e-01 9.0382568538188934e-02</leafValues></_>
        <_>
          <internalNodes>
            0 -1 223 6.6411688923835754e-02</internalNodes>
          <leafValues>
            -1.1269822716712952e-01 7.8910654783248901e-01</leafValues></_>
        <_>
          <internalNodes>
            0 -1 84 9.0913690626621246e-02</internalNodes>
          <leafValues>
            -1.2396813184022903e-01 4.7252649068832397e-01</leafValues></_>
        <_>
          <internalNodes>
            0 -1 133 5.9811521321535110e-02</internalNodes>
          <leafValues>
            8.5259683430194855e-02 -8.1648641824722290e-01</leafValues></_>
        <_>
          <internalNodes>
            0 -1 193 7.5389130506664515e-04</internalNodes>
          <leafValues>
            -6.7191994190216064e-01 6.2823228538036346e-02</leafValues></_></weakClassifiers></_>
    <!-- stage 6 -->
    <_>
      <maxWeakCount>21</maxWeakCount>
      <stageThreshold>-1.5864382982254028e+00</stageThreshold>
      <weakClassifiers>
        <_>
          <internalNodes>
            0 -1 103 9.8609421402215958e-03</internalNodes>
          <leafValues>
            -2.4878048896789551e-01 -7.5452715158462524e-01</leafValues></_>
        <_>
          <internalNodes>
            0 -1 177 1.1274252086877823e-02</internalNodes>
          <leafValues>
            1.8833678960800171e-01 -3.9930561184883118e-01</leafValues></_>
        <_>
          <internalNodes>
            0 -1 186 4.3406393378973007e-03</internalNodes>
          <leafValues>
            2.5794956088066101e-01 -2.4558067321777344e-01</leafValues></_>
        <_>
          <internalNodes>
            0 -1 61 3.8295693695545197e-02</internalNodes>
          <leafValues>
            1.0564906150102615e-01 -5.9740382432937622e-01</leafValues></_>
        <_>
          <internalNodes>
            0 -1 176 5.0364505499601364e-02</internalNodes>
          <leafValues>
            -1.2425758689641953e-01 5.1728713512420654e-01</leafValues></_>
        <_>
          <internalNodes>
            0 -1 1 6.4511030912399292e-02</internalNodes>
          <leafValues>
            -2.0700323581695557e-01 4.3951532244682312e-01</leafValues></_>
        <_>
          <internalNodes>
            0 -1 146 1.1585716158151627e-02</internalNodes>
          <leafValues>
            3.3249038457870483e-01 -2.0042867958545685e-01</leafValues></_>
        <_>
          <internalNodes>
            0 -1 71 6.7250669002532959e-02</internalNodes>
          <leafValues>
            -1.1136358231306076e-01 5.3490841388702393e-01</leafValues></_>
        <_>
          <internalNodes>
            0 -1 67 1.9782118499279022e-02</internalNodes>
          <leafValues>
            2.1158629655838013e-01 -2.6727056503295898e-01</leafValues></_>
        <_>
          <internalNodes>
            0 -1 55 6.2946185469627380e-02</internalNodes>
          <leafValues>
            -8.6438149213790894e-02 4.5320665836334229e-01</leafValues></_>
        <_>
          <internalNodes>
            0 -1 103 1.9387121498584747e-01</internalNodes>
          <leafValues>
            -7.6179236173629761e-02 7.6893639564514160e-01</leafValues></_>
        <_>
          <internalNodes>
            0 -1 137 3.4896016120910645e-02</internalNodes>
          <leafValues>
            -8.3863988518714905e-02 6.2294846773147583e-01</leafValues></_>
        <_>
          <internalNodes>
            0 -1 139 1.2978684902191162e-01</internalNodes>
          <leafValues>
            -1.0865055769681931e-01 6.2945210933685303e-01</leafValues></_>
        <_>
          <internalNodes>
            0 -1 191 3.9814960211515427e-02</internalNodes>
          <leafValues>
            9.4098098576068878e-02 -6.0806518793106079e-01</leafValues></_>
        <_>
          <internalNodes>
            0 -1 0 4.7658937983214855e-03</internalNodes>
          <leafValues>
            -5.8052629232406616e-01 6.4388252794742584e-02</leafValues></_>
        <_>
          <internalNodes>
            0 -1 31 2.7502523735165596e-03</internalNodes>
          <leafValues>
            2.7798494696617126e-01 -1.4975361526012421e-01</leafValues></_>
        <_>
          <internalNodes>
            0 -1 28 1.0473284125328064e-01</internalNodes>
          <leafValues>
            7.1295179426670074e-02 -7.3381489515304565e-01</leafValues></_>
        <_>
          <internalNodes>
            0 -1 139 1.4352764934301376e-02</internalNodes>
          <leafValues>
            3.0722376704216003e-01 -1.3116301596164703e-01</leafValues></_>
        <_>
          <internalNodes>
            0 -1 211 1.4455254375934601e-01</internalNodes>
          <leafValues>
            -7.5489096343517303e-02 6.2068468332290649e-01</leafValues></_>
        <_>
          <internalNodes>
            0 -1 65 2.9781861230731010e-02</internalNodes>
          <leafValues>
            -3.1050136685371399e-01 1.6148905456066132e-01</leafValues></_>
        <_>
          <internalNodes>
            0 -1 99 9.1371156275272369e-02</internalNodes>
          <leafValues>
            9.2048011720180511e-02 -5.1398748159408569e-01</leafValues></_></weakClassifiers></_>
    <!-- stage 7 -->
    <_>
      <maxWeakCount>28</maxWeakCount>
      <stageThreshold>-1.5262359380722046e+00</stageThreshold>
      <weakClassifiers>
        <_>
          <internalNodes>
            0 -1 171 9.5545411109924316e-02</internalNodes>
          <leafValues>
            -6.9717705249786377e-01 4.6666666865348816e-01</leafValues></_>
        <_>
          <internalNodes>
            0 -1 124 7.8143805265426636e-02</internalNodes>
          <leafValues>
            -2.6825168728828430e-01 3.7189877033233643e-01</leafValues></_>
        <_>
          <internalNodes>
            0 -1 150 1.3111765682697296e-01</internalNodes>
          <leafValues>
            -1.1683473736047745e-01 5.6288009881973267e-01</leafValues></_>
        <_>
          <internalNodes>
            0 -1 181 1.7487165331840515e-01</internalNodes>
          <leafValues>
            -6.5941877663135529e-02 8.5789537429809570e-01</leafValues></_>
        <_>
          <internalNodes>
            0 -1 94 4.6046368777751923e-02</internalNodes>
          <leafValues>
            8.3706364035606384e-02 -6.1588448286056519e-01</leafValues></_>
        <_>
          <internalNodes>
            0 -1 183 6.1015449464321136e-02</internalNodes>
          <leafValues>
            -9.8210521042346954e-02 5.4471236467361450e-01</leafValues></_>
        <_>
          <internalNodes>
            0 -1 30 6.2118368223309517e-03</internalNodes>
          <leafValues>
            4.1169422864913940e-01 -1.2190124392509460e-01</leafValues></_>
        <_>
          <internalNodes>
            0 -1 194 2.0339572802186012e-02</internalNodes>
          <leafValues>
            2.1616436541080475e-01 -2.5139322876930237e-01</leafValues></_>
        <_>
          <internalNodes>
            0 -1 157 9.6426240634173155e-04</internalNodes>
          <leafValues>
            -7.7810889482498169e-01 3.1386353075504303e-02</leafValues></_>
        <_>
          <internalNodes>
            0 -1 116 4.7848425805568695e-02</internalNodes>
          <leafValues>
            7.8824043273925781e-02 -5.1793122291564941e-01</leafValues></_>
        <_>
          <internalNodes>
            0 -1 175 1.1598917841911316e-01</internalNodes>
          <leafValues>
            4.6549230813980103e-02 -7.2212040424346924e-01</leafValues></_>
        <_>
          <internalNodes>
            0 -1 155 1.0755725204944611e-01</internalNodes>
          <leafValues>
            -7.8047893941402435e-02 4.5098796486854553e-01</leafValues></_>
        <_>
          <internalNodes>
            0 -1 103 1.1561518535017967e-02</internalNodes>
          <leafValues>
            3.1101915240287781e-01 -1.4084142446517944e-01</leafValues></_>
        <_>
          <internalNodes>
            0 -1 1 1.3994915783405304e-01</internalNodes>
          <leafValues>
            -5.8799851685762405e-02 7.0383536815643311e-01</leafValues></_>
        <_>
          <internalNodes>
            0 -1 101 5.3152956068515778e-02</internalNodes>
          <leafValues>
            6.7334108054637909e-02 -6.4674490690231323e-01</leafValues></_>
        <_>
          <internalNodes>
            0 -1 193 5.6036196649074554e-02</internalNodes>
          <leafValues>
            -1.2576679885387421e-01 4.1164216399192810e-01</leafValues></_>
        <_>
          <internalNodes>
            0 -1 67 4.5527905225753784e-02</internalNodes>
          <leafValues>
            8.3450801670551300e-02 -5.8794635534286499e-01</leafValues></_>
        <_>
          <internalNodes>
            0 -1 23 1.0155406594276428e-01</internalNodes>
          <leafValues>
            3.5516817122697830e-02 -5.9673255681991577e-01</leafValues></_>
        <_>
          <internalNodes>
            0 -1 9 5.8141831308603287e-02</internalNodes>
          <leafValues>
            6.7100882530212402e-02 -5.1486939191818237e-01</leafValues></_>
        <_>
          <internalNodes>
            0 -1 41 1.7340995371341705e-02</internalNodes>
          <leafValues>
            -3.9827823638916016e-01 7.8550033271312714e-02</leafValues></_>
        <_>
          <internalNodes>
            0 -1 215 5.4339367896318436e-02</internalNodes>
          <leafValues>
            -8.4094770252704620e-02 6.3401728868484497e-01</leafValues></_>
        <_>
          <internalNodes>
            0 -1 179 4.7231535427272320e-03</internalNodes>
          <leafValues>
            2.1966622769832611e-01 -1.7197801172733307e-01</leafValues></_>
        <_>
          <internalNodes>
            0 -1 211 1.4487133920192719e-01</internalNodes>
          <leafValues>
            -7.3235325515270233e-02 4.6661752462387085e-01</leafValues></_>
        <_>
          <internalNodes>
            0 -1 182 6.6984109580516815e-02</internalNodes>
          <leafValues>
            1.2191317975521088e-01 -3.1709748506546021e-01</leafValues></_>
        <_>
          <internalNodes>
            0 -1 123 4.8997044563293457e-02</internalNodes>
          <leafValues>
            5.1218170672655106e-02 -5.7746011018753052e-01</leafValues></_>
        <_>
          <internalNodes>
            0 -1 220 8.0102356150746346e-04</internalNodes>
          <leafValues>
            -5.8323961496353149e-01 4.1790649294853210e-02</leafValues></_>
        <_>
          <internalNodes>
            0 -1 90 6.4261622726917267e-02</internalNodes>
          <leafValues>
            -6.2434218823909760e-02 7.2844547033309937e-01</leafValues></_>
        <_>
          <internalNodes>
            0 -1 171 7.3201507329940796e-03</internalNodes>
          <leafValues>
            1.8015168607234955e-01 -1.8366509675979614e-01</leafValues></_></weakClassifiers></_>
    <!-- stage 8 -->
    <_>
      <maxWeakCount>27</maxWeakCount>
      <stageThreshold>-1.6003085374832153e+00</stageThreshold>
      <weakClassifiers>
        <_>
          <internalNodes>
            0 -1 7 1.1725233495235443e-01</internalNodes>
          <leafValues>
            -6.8634063005447388e-01 1.</leafValues></_>
        <_>
          <internalNodes>
            0 -1 29 8.5743293166160583e-02</internalNodes>
          <leafValues>
            -2.6329511404037476e-01 4.5184889435768127e-01</leafValues></_>
        <_>
          <internalNodes>
            0 -1 177 6.2425140291452408e-02</internalNodes>
          <leafValues>
            6.7722968757152557e-02 -8.1971222162246704e-01</leafValues></_>
        <_>
          <internalNodes>
            0 -1 194 5.2543558180332184e-02</internalNodes>
          <leafValues>
            8.9496389031410217e-02 -6.0541045665740967e-01</leafValues></_>
        <_>
          <internalNodes>
            0 -1 114 5.8472640812397003e-03</internalNodes>
          <leafValues>
            1.8342870473861694e-01 -2.7359163761138916e-01</leafValues></_>
        <_>
          <internalNodes>
            0 -1 70 1.5976207330822945e-02</internalNodes>
          <leafValues>
            2.9514110088348389e-01 -1.2554644048213959e-01</leafValues></_>
        <_>
          <internalNodes>
            0 -1 1 5.3771451115608215e-02</internalNodes>
          <leafValues>
            -1.2925322353839874e-01 2.9848027229309082e-01</leafValues></_>
        <_>
          <internalNodes>
            0 -1 189 5.7709524407982826e-03</internalNodes>
          <leafValues>
            3.3010843396186829e-01 -1.5841501951217651e-01</leafValues></_>
        <_>
          <internalNodes>
            0 -1 69 4.6337638050317764e-03</internalNodes>
          <leafValues>
            4.0110465884208679e-01 -1.2685303390026093e-01</leafValues></_>
        <_>
          <internalNodes>
            0 -1 132 3.2570280134677887e-02</internalNodes>
          <leafValues>
            -5.9616886079311371e-02 6.8525516986846924e-01</leafValues></_>
        <_>
          <internalNodes>
            0 -1 108 5.4935924708843231e-03</internalNodes>
          <leafValues>
            2.5993153452873230e-01 -1.2661275267601013e-01</leafValues></_>
        <_>
          <internalNodes>
            0 -1 160 7.0258550113067031e-04</internalNodes>
          <leafValues>
            -5.7742547988891602e-01 9.9888816475868225e-02</leafValues></_>
        <_>
          <internalNodes>
            0 -1 78 7.1352720260620117e-02</internalNodes>
          <leafValues>
            4.9722805619239807e-02 -4.8150962591171265e-01</leafValues></_>
        <_>
          <internalNodes>
            0 -1 41 1.0515471547842026e-01</internalNodes>
          <leafValues>
            6.4358942210674286e-02 -7.3398101329803467e-01</leafValues></_>
        <_>
          <internalNodes>
            0 -1 22 7.8099006786942482e-03</internalNodes>
          <leafValues>
            1.5824365615844727e-01 -2.4142611026763916e-01</leafValues></_>
        <_>
          <internalNodes>
            0 -1 171 1.1096349358558655e-01</internalNodes>
          <leafValues>
            -4.6416316181421280e-02 8.0510956048965454e-01</leafValues></_>
        <_>
          <internalNodes>
            0 -1 48 1.8811920285224915e-01</internalNodes>
          <leafValues>
            -7.1405172348022461e-02 5.0968843698501587e-01</leafValues></_>
        <_>
          <internalNodes>
            0 -1 219 2.1736521273851395e-02</internalNodes>
          <leafValues>
            -2.4831648170948029e-01 1.5109679102897644e-01</leafValues></_>
        <_>
          <internalNodes>
            0 -1 45 7.1561023592948914e-02</internalNodes>
          <leafValues>
            -4.6929188072681427e-02 8.6783194541931152e-01</leafValues></_>
        <_>
          <internalNodes>
            0 -1 2 6.8516051396727562e-03</internalNodes>
          <leafValues>
            -4.9373811483383179e-01 8.0478310585021973e-02</leafValues></_>
        <_>
          <internalNodes>
            0 -1 204 1.4455071650445461e-02</internalNodes>
          <leafValues>
            3.2227164506912231e-01 -1.2397815287113190e-01</leafValues></_>
        <_>
          <internalNodes>
            0 -1 150 1.6522109508514404e-01</internalNodes>
          <leafValues>
            -7.3830269277095795e-02 5.6303638219833374e-01</leafValues></_>
        <_>
          <internalNodes>
            0 -1 224 2.1072974428534508e-02</internalNodes>
          <leafValues>
            1.2097503244876862e-01 -2.6279973983764648e-01</leafValues></_>
        <_>
          <internalNodes>
            0 -1 25 2.1092124283313751e-02</internalNodes>
          <leafValues>
            -9.8567277193069458e-02 4.0216451883316040e-01</leafValues></_>
        <_>
          <internalNodes>
            0 -1 178 4.1680969297885895e-03</internalNodes>
          <leafValues>
            2.2014611959457397e-01 -1.8894620239734650e-01</leafValues></_>
        <_>
          <internalNodes>
            0 -1 221 3.4857284277677536e-02</internalNodes>
          <leafValues>
            1.0924407094717026e-01 -3.3387991786003113e-01</leafValues></_>
        <_>
          <internalNodes>
            0 -1 151 6.5359294414520264e-02</internalNodes>
          <leafValues>
            -8.0792710185050964e-02 4.1785326600074768e-01</leafValues></_></weakClassifiers></_>
    <!-- stage 9 -->
    <_>
      <maxWeakCount>35</maxWeakCount>
      <stageThreshold>-1.5401657819747925e+00</stageThreshold>
      <weakClassifiers>
        <_>
          <internalNodes>
            0 -1 32 9.3909949064254761e-02</internalNodes>
          <leafValues>
            -6.9243842363357544e-01 6.3636362552642822e-01</leafValues></_>
        <_>
          <internalNodes>
            0 -1 216 6.7881597205996513e-03</internalNodes>
          <leafValues>
            1.5038646757602692e-01 -2.9446262121200562e-01</leafValues></_>
        <_>
          <internalNodes>
            0 -1 43 4.5591518282890320e-02</internalNodes>
          <leafValues>
            7.2111397981643677e-02 -7.7403384447097778e-01</leafValues></_>
        <_>
          <internalNodes>
            0 -1 47 2.0613770931959152e-02</internalNodes>
          <leafValues>
            2.3764856159687042e-01 -1.8921954929828644e-01</leafValues></_>
        <_>
          <internalNodes>
            0 -1 64 9.5574721693992615e-02</internalNodes>
          <leafValues>
            -1.5129348635673523e-01 3.2177770137786865e-01</leafValues></_>
        <_>
          <internalNodes>
            0 -1 156 1.0473620891571045e-01</internalNodes>
          <leafValues>
            4.5782685279846191e-02 -8.0589377880096436e-01</leafValues></_>
        <_>
          <internalNodes>
            0 -1 181 1.7941220104694366e-01</internalNodes>
          <leafValues>
            -4.9265976995229721e-02 7.1179908514022827e-01</leafValues></_>
        <_>
          <internalNodes>
            0 -1 36 7.3889292776584625e-02</internalNodes>
          <leafValues>
            -1.0124512016773224e-01 4.1187900304794312e-01</leafValues></_>
        <_>
          <internalNodes>
            0 -1 27 8.5366368293762207e-02</internalNodes>
          <leafValues>
            -1.3857108354568481e-01 3.5686326026916504e-01</leafValues></_>
        <_>
          <internalNodes>
            0 -1 81 3.5977385938167572e-02</internalNodes>
          <leafValues>
            -9.1334305703639984e-02 5.6087702512741089e-01</leafValues></_>
        <_>
          <internalNodes>
            0 -1 73 4.6157900942489505e-04</internalNodes>
          <leafValues>
            -4.7281870245933533e-01 7.7381350100040436e-02</leafValues></_>
        <_>
          <internalNodes>
            0 -1 211 1.4475914835929871e-01</internalNodes>
          <leafValues>
            -6.5447568893432617e-02 5.9474855661392212e-01</leafValues></_>
        <_>
          <internalNodes>
            0 -1 209 9.5970541238784790e-02</internalNodes>
          <leafValues>
            -3.8389857858419418e-02 8.9541196823120117e-01</leafValues></_>
        <_>
          <internalNodes>
            0 -1 182 2.5387721136212349e-02</internalNodes>
          <leafValues>
            -3.2479265332221985e-01 1.0555217415094376e-01</leafValues></_>
        <_>
          <internalNodes>
            0 -1 17 8.4400586783885956e-03</internalNodes>
          <leafValues>
            4.0779730677604675e-01 -7.2626784443855286e-02</leafValues></_>
        <_>
          <internalNodes>
            0 -1 2 1.3288015499711037e-02</internalNodes>
          <leafValues>
            -4.0084740519523621e-01 9.8427429795265198e-02</leafValues></_>
        <_>
          <internalNodes>
            0 -1 158 2.7219157665967941e-02</internalNodes>
          <leafValues>
            1.3477912545204163e-01 -2.9989486932754517e-01</leafValues></_>
        <_>
          <internalNodes>
            0 -1 159 2.0803080871701241e-02</internalNodes>
          <leafValues>
            -7.7714450657367706e-02 5.2393889427185059e-01</leafValues></_>
        <_>
          <internalNodes>
            0 -1 66 9.4633340835571289e-02</internalNodes>
          <leafValues>
            -6.6996254026889801e-02 4.8388889431953430e-01</leafValues></_>
        <_>
          <internalNodes>
            0 -1 167 9.5760881900787354e-02</internalNodes>
          <leafValues>
            6.5841853618621826e-02 -6.3979744911193848e-01</leafValues></_>
        <_>
          <internalNodes>
            0 -1 107 6.2341947341337800e-04</internalNodes>
          <leafValues>
            -3.9511060714721680e-01 7.6042853295803070e-02</leafValues></_>
        <_>
          <internalNodes>
            0 -1 108 6.9284671917557716e-03</internalNodes>
          <leafValues>
            1.9853511452674866e-01 -1.7752937972545624e-01</leafValues></_>
        <_>
          <internalNodes>
            0 -1 146 6.4690643921494484e-03</internalNodes>
          <leafValues>
            3.3410102128982544e-01 -9.5608554780483246e-02</leafValues></_>
        <_>
          <internalNodes>
            0 -1 129 1.9372528791427612e-01</internalNodes>
          <leafValues>
            -5.4662331938743591e-02 5.8534765243530273e-01</leafValues></_>
        <_>
          <internalNodes>
            0 -1 154 3.0369782820343971e-02</internalNodes>
          <leafValues>
            1.5643063187599182e-01 -2.5283533334732056e-01</leafValues></_>
        <_>
          <internalNodes>
            0 -1 56 5.2400574088096619e-02</internalNodes>
          <leafValues>
            5.7278018444776535e-02 -6.0847413539886475e-01</leafValues></_>
        <_>
          <internalNodes>
            0 -1 178 6.6386237740516663e-02</internalNodes>
          <leafValues>
            2.1671915426850319e-02 -1.</leafValues></_>
        <_>
          <internalNodes>
            0 -1 132 3.7532612681388855e-02</internalNodes>
          <leafValues>
            -5.8713749051094055e-02 7.2033739089965820e-01</leafValues></_>
        <_>
          <internalNodes>
            0 -1 18 9.4979010522365570e-02</internalNodes>
          <leafValues>
            -7.8692317008972168e-02 3.6232790350914001e-01</leafValues></_>
        <_>
          <internalNodes>
            0 -1 169 2.6953510940074921e-02</internalNodes>
          <leafValues>
            1.2217982858419418e-01 -2.7624121308326721e-01</leafValues></_>
        <_>
          <internalNodes>
            0 -1 136 2.6234870776534081e-02</internalNodes>
          <leafValues>
            -7.3257833719253540e-02 5.3552538156509399e-01</leafValues></_>
        <_>
          <internalNodes>
            0 -1 144 1.5837514773011208e-02</internalNodes>
          <leafValues>
            -3.3435401320457458e-01 1.0793073475360870e-01</leafValues></_>
        <_>
          <internalNodes>
            0 -1 87 6.9750742986798286e-03</internalNodes>
          <leafValues>
            2.9318082332611084e-01 -1.3380962610244751e-01</leafValues></_>
        <_>
          <internalNodes>
            0 -1 38 1.3801350723952055e-04</internalNodes>
          <leafValues>
            -4.9036300182342529e-01 6.4741834998130798e-02</leafValues></_>
        <_>
          <internalNodes>
            0 -1 113 5.2093346603214741e-03</internalNodes>
          <leafValues>
            1.5412166714668274e-01 -2.1826338768005371e-01</leafValues></_></weakClassifiers></_>
    <!-- stage 10 -->
    <_>
      <maxWeakCount>33</maxWeakCount>
      <stageThreshold>-1.3983697891235352e+00</stageThreshold>
      <weakClassifiers>
        <_>
          <internalNodes>
            0 -1 114 1.2596568465232849e-01</internalNodes>
          <leafValues>
            -6.9243842363357544e-01 6.3636362552642822e-01</leafValues></_>
        <_>
          <internalNodes>
            0 -1 124 9.2096954584121704e-02</internalNodes>
          <leafValues>
            -2.5404897332191467e-01 3.8068905472755432e-01</leafValues></_>
        <_>
          <internalNodes>
            0 -1 141 3.5095689818263054e-03</internalNodes>
          <leafValues>
            4.1330102086067200e-01 -9.7120426595211029e-02</leafValues></_>
        <_>
          <internalNodes>
            0 -1 1 9.8236694931983948e-02</internalNodes>
          <leafValues>
            -9.0905539691448212e-02 4.2121356725692749e-01</leafValues></_>
        <_>
          <internalNodes>
            0 -1 86 8.2612380385398865e-02</internalNodes>
          <leafValues>
            -8.0688066780567169e-02 4.5570591092109680e-01</leafValues></_>
        <_>
          <internalNodes>
            0 -1 60 8.8629182428121567e-03</internalNodes>
          <leafValues>
            2.3984117805957794e-01 -1.3438014686107635e-01</leafValues></_>
        <_>
          <internalNodes>
            0 -1 26 6.8236305378377438e-03</internalNodes>
          <leafValues>
            2.1379929780960083e-01 -1.3385090231895447e-01</leafValues></_>
        <_>
          <internalNodes>
            0 -1 177 6.2409721314907074e-02</internalNodes>
          <leafValues>
            3.9112631231546402e-02 -8.4309500455856323e-01</leafValues></_>
        <_>
          <internalNodes>
            0 -1 50 1.9329781830310822e-01</internalNodes>
          <leafValues>
            2.7196457609534264e-02 -1.</leafValues></_>
        <_>
          <internalNodes>
            0 -1 75 8.1232525408267975e-03</internalNodes>
          <leafValues>
            2.2943970561027527e-01 -1.2759481370449066e-01</leafValues></_>
        <_>
          <internalNodes>
            0 -1 79 4.3803844600915909e-03</internalNodes>
          <leafValues>
            3.4307035803794861e-01 -9.3497961759567261e-02</leafValues></_>
        <_>
          <internalNodes>
            0 -1 164 4.7391233965754509e-04</internalNodes>
          <leafValues>
            -4.4308021664619446e-01 7.4643798172473907e-02</leafValues></_>
        <_>
          <internalNodes>
            0 -1 160 3.5515154013410211e-04</internalNodes>
          <leafValues>
            -5.4908508062362671e-01 6.4873903989791870e-02</leafValues></_>
        <_>
          <internalNodes>
            0 -1 199 1.5193457901477814e-01</internalNodes>
          <leafValues>
            -8.0173738300800323e-02 3.5758697986602783e-01</leafValues></_>
        <_>
          <internalNodes>
            0 -1 209 7.5799794867634773e-03</internalNodes>
          <leafValues>
            2.2642782330513000e-01 -1.3844896852970123e-01</leafValues></_>
        <_>
          <internalNodes>
            0 -1 20 2.3778533563017845e-02</internalNodes>
          <leafValues>
            -8.0682404339313507e-02 4.0237882733345032e-01</leafValues></_>
        <_>
          <internalNodes>
            0 -1 32 9.7139909863471985e-02</internalNodes>
          <leafValues>
            3.5012769512832165e-03 8.1085658073425293e-01</leafValues></_>
        <_>
          <internalNodes>
            0 -1 22 7.6082125306129456e-03</internalNodes>
          <leafValues>
            1.3648745417594910e-01 -2.2528520226478577e-01</leafValues></_>
        <_>
          <internalNodes>
            0 -1 194 2.3410994559526443e-02</internalNodes>
          <leafValues>
            1.1267632991075516e-01 -2.5118529796600342e-01</leafValues></_>
        <_>
          <internalNodes>
            0 -1 9 4.5166168361902237e-02</internalNodes>
          <leafValues>
            9.0233430266380310e-02 -3.1065338850021362e-01</leafValues></_>
        <_>
          <internalNodes>
            0 -1 150 1.9991967082023621e-01</internalNodes>
          <leafValues>
            -4.5393113046884537e-02 5.7435220479965210e-01</leafValues></_>
        <_>
          <internalNodes>
            0 -1 81 9.9066691473126411e-04</internalNodes>
          <leafValues>
            -5.1076662540435791e-01 5.5844236165285110e-02</leafValues></_>
        <_>
          <internalNodes>
            0 -1 181 2.2278414666652679e-01</internalNodes>
          <leafValues>
            -3.1935926526784897e-02 8.8062542676925659e-01</leafValues></_>
        <_>
          <internalNodes>
            0 -1 176 4.0471408516168594e-02</internalNodes>
          <leafValues>
            -1.0175520181655884e-01 2.4244262278079987e-01</leafValues></_>
        <_>
          <internalNodes>
            0 -1 130 1.3932636380195618e-01</internalNodes>
          <leafValues>
            5.4208610206842422e-02 -5.4690319299697876e-01</leafValues></_>
        <_>
          <internalNodes>
            0 -1 224 7.7019361779093742e-03</internalNodes>
          <leafValues>
            2.0453244447708130e-01 -1.2325257062911987e-01</leafValues></_>
        <_>
          <internalNodes>
            0 -1 115 5.2042052149772644e-02</internalNodes>
          <leafValues>
            -5.9115488082170486e-02 4.9007996916770935e-01</leafValues></_>
        <_>
          <internalNodes>
            0 -1 64 6.1594329774379730e-02</internalNodes>
          <leafValues>
            -1.4362859725952148e-01 2.0730704069137573e-01</leafValues></_>
        <_>
          <internalNodes>
            0 -1 29 1.0173297673463821e-01</internalNodes>
          <leafValues>
            -6.3507899641990662e-02 5.0206696987152100e-01</leafValues></_>
        <_>
          <internalNodes>
            0 -1 85 5.7242587208747864e-02</internalNodes>
          <leafValues>
            9.9437125027179718e-02 -2.6609939336776733e-01</leafValues></_>
        <_>
          <internalNodes>
            0 -1 149 6.4870454370975494e-02</internalNodes>
          <leafValues>
            -6.2002539634704590e-02 4.4021862745285034e-01</leafValues></_>
        <_>
          <internalNodes>
            0 -1 83 3.3689972013235092e-02</internalNodes>
          <leafValues>
            1.2924714386463165e-01 -2.3080673813819885e-01</leafValues></_>
        <_>
          <internalNodes>
            0 -1 155 7.4322789907455444e-02</internalNodes>
          <leafValues>
            -1.5389519929885864e-01 2.7684259414672852e-01</leafValues></_></weakClassifiers></_>
    <!-- stage 11 -->
    <_>
      <maxWeakCount>42</maxWeakCount>
      <stageThreshold>-1.5697849988937378e+00</stageThreshold>
      <weakClassifiers>
        <_>
          <internalNodes>
            0 -1 223 1.0109465569257736e-01</internalNodes>
          <leafValues>
            -6.9479966163635254e-01 5.3846156597137451e-01</leafValues></_>
        <_>
          <internalNodes>
            0 -1 188 8.7545417249202728e-02</internalNodes>
          <leafValues>
            -2.4338909983634949e-01 3.0185601115226746e-01</leafValues></_>
        <_>
          <internalNodes>
            0 -1 43 3.6258324980735779e-02</internalNodes>
          <leafValues>
            6.6028669476509094e-02 -4.7566044330596924e-01</leafValues></_>
        <_>
          <internalNodes>
            0 -1 3 9.4960496062412858e-04</internalNodes>
          <leafValues>
            -5.5034488439559937e-01 7.7881082892417908e-02</leafValues></_>
        <_>
          <internalNodes>
            0 -1 30 4.0710936300456524e-03</internalNodes>
          <leafValues>
            5.2954602241516113e-01 -8.9831076562404633e-02</leafValues></_>
        <_>
          <internalNodes>
            0 -1 39 3.6955051124095917e-02</internalNodes>
          <leafValues>
            6.7413903772830963e-02 -3.9016920328140259e-01</leafValues></_>
        <_>
          <internalNodes>
            0 -1 211 1.7729428410530090e-01</internalNodes>
          <leafValues>
            -4.8507988452911377e-02 6.5066313743591309e-01</leafValues></_>
        <_>
          <internalNodes>
            0 -1 123 3.6960221827030182e-02</internalNodes>
          <leafValues>
            1.1950310319662094e-01 -3.3310979604721069e-01</leafValues></_>
        <_>
          <internalNodes>
            0 -1 105 5.7834371924400330e-02</internalNodes>
          <leafValues>
            3.0257357284426689e-02 -7.1713680028915405e-01</leafValues></_>
        <_>
          <internalNodes>
            0 -1 80 3.3639263361692429e-02</internalNodes>
          <leafValues>
            -5.2018288522958755e-02 6.4626222848892212e-01</leafValues></_>
        <_>
          <internalNodes>
            0 -1 11 7.2621241211891174e-02</internalNodes>
          <leafValues>
            -6.9029130041599274e-02 4.4012621045112610e-01</leafValues></_>
        <_>
          <internalNodes>
            0 -1 194 5.2516452968120575e-02</internalNodes>
          <leafValues>
            6.7814990878105164e-02 -5.9694999456405640e-01</leafValues></_>
        <_>
          <internalNodes>
            0 -1 0 2.4663957301527262e-03</internalNodes>
          <leafValues>
            -7.7542847394943237e-01 4.1384637355804443e-02</leafValues></_>
        <_>
          <internalNodes>
            0 -1 122 7.2888627648353577e-02</internalNodes>
          <leafValues>
            -4.8165917396545410e-02 8.0275714397430420e-01</leafValues></_>
        <_>
          <internalNodes>
            0 -1 214 3.6497890949249268e-02</internalNodes>
          <leafValues>
            -4.1473105549812317e-02 6.6365581750869751e-01</leafValues></_>
        <_>
          <internalNodes>
            0 -1 48 1.8818184733390808e-01</internalNodes>
          <leafValues>
            -6.6418036818504333e-02 4.0654182434082031e-01</leafValues></_>
        <_>
          <internalNodes>
            0 -1 53 2.2016848623752594e-01</internalNodes>
          <leafValues>
            -3.5349674522876740e-02 7.6527965068817139e-01</leafValues></_>
        <_>
          <internalNodes>
            0 -1 102 1.5627902746200562e-01</internalNodes>
          <leafValues>
            -2.2222382947802544e-02 9.7228300571441650e-01</leafValues></_>
        <_>
          <internalNodes>
            0 -1 198 6.2703946605324745e-03</internalNodes>
          <leafValues>
            2.3512434959411621e-01 -1.2022020667791367e-01</leafValues></_>
        <_>
          <internalNodes>
            0 -1 222 8.7760761380195618e-04</internalNodes>
          <leafValues>
            -5.9360837936401367e-01 4.3550785630941391e-02</leafValues></_>
        <_>
          <internalNodes>
            0 -1 1 1.8503637611865997e-01</internalNodes>
          <leafValues>
            -3.4154225140810013e-02 8.0355525016784668e-01</leafValues></_>
        <_>
          <internalNodes>
            0 -1 181 2.2367471456527710e-01</internalNodes>
          <leafValues>
            -2.7889285236597061e-02 8.2424020767211914e-01</leafValues></_>
        <_>
          <internalNodes>
            0 -1 15 6.6870227456092834e-03</internalNodes>
          <leafValues>
            2.5115382671356201e-01 -1.0791810601949692e-01</leafValues></_>
        <_>
          <internalNodes>
            0 -1 5 2.2357530891895294e-02</internalNodes>
          <leafValues>
            -6.5046057105064392e-02 4.2459294199943542e-01</leafValues></_>
        <_>
          <internalNodes>
            0 -1 87 1.2861033901572227e-02</internalNodes>
          <leafValues>
            1.5547071397304535e-01 -1.7686246335506439e-01</leafValues></_>
        <_>
          <internalNodes>
            0 -1 149 7.5721830129623413e-02</internalNodes>
          <leafValues>
            4.3195806443691254e-02 -6.9838070869445801e-01</leafValues></_>
        <_>
          <internalNodes>
            0 -1 1 6.4410172402858734e-02</internalNodes>
          <leafValues>
            -1.2160025537014008e-01 2.4664993584156036e-01</leafValues></_>
        <_>
          <internalNodes>
            0 -1 27 1.3748751953244209e-02</internalNodes>
          <leafValues>
            3.1393632292747498e-01 -1.3331812620162964e-01</leafValues></_>
        <_>
          <internalNodes>
            0 -1 29 3.5634171217679977e-03</internalNodes>
          <leafValues>
            -4.9439230561256409e-01 5.0071202218532562e-02</leafValues></_>
        <_>
          <internalNodes>
            0 -1 35 8.1786312162876129e-02</internalNodes>
          <leafValues>
            7.5921863317489624e-02 -4.0940535068511963e-01</leafValues></_>
        <_>
          <internalNodes>
            0 -1 138 8.8974744081497192e-02</internalNodes>
          <leafValues>
            2.2424289956688881e-02 -1.</leafValues></_>
        <_>
          <internalNodes>
            0 -1 119 4.2315842583775520e-03</internalNodes>
          <leafValues>
            3.0247926712036133e-01 -1.0044286400079727e-01</leafValues></_>
        <_>
          <internalNodes>
            0 -1 157 2.0792838186025620e-03</internalNodes>
          <leafValues>
            -6.7999845743179321e-01 4.9742415547370911e-02</leafValues></_>
        <_>
          <internalNodes>
            0 -1 213 7.0580089231953025e-04</internalNodes>
          <leafValues>
            -4.7902384400367737e-01 3.9326336234807968e-02</leafValues></_>
        <_>
          <internalNodes>
            0 -1 107 7.2933964431285858e-02</internalNodes>
          <leafValues>
            -4.4044390320777893e-02 8.4907960891723633e-01</leafValues></_>
        <_>
          <internalNodes>
            0 -1 141 3.4188915044069290e-02</internalNodes>
          <leafValues>
            9.0898774564266205e-02 -2.9144379496574402e-01</leafValues></_>
        <_>
          <internalNodes>
            0 -1 140 6.2745273113250732e-02</internalNodes>
          <leafValues>
            -1.0510402917861938e-01 4.2348849773406982e-01</leafValues></_>
        <_>
          <internalNodes>
            0 -1 167 9.2002116143703461e-02</internalNodes>
          <leafValues>
            5.6936737149953842e-02 -5.2503859996795654e-01</leafValues></_>
        <_>
          <internalNodes>
            0 -1 19 4.9545608460903168e-02</internalNodes>
          <leafValues>
            3.9280775934457779e-02 -5.3006410598754883e-01</leafValues></_>
        <_>
          <internalNodes>
            0 -1 206 9.4527311623096466e-02</internalNodes>
          <leafValues>
            -6.7119471728801727e-02 4.4970428943634033e-01</leafValues></_>
        <_>
          <internalNodes>
            0 -1 122 7.7597061172127724e-03</internalNodes>
          <leafValues>
            -1.9754421710968018e-01 1.4703941345214844e-01</leafValues></_>
        <_>
          <internalNodes>
            0 -1 18 1.0198333766311407e-03</internalNodes>
          <leafValues>
            -6.8349516391754150e-01 3.8214094936847687e-02</leafValues></_></weakClassifiers></_>
    <!-- stage 12 -->
    <_>
      <maxWeakCount>35</maxWeakCount>
      <stageThreshold>-1.5035303831100464e+00</stageThreshold>
      <weakClassifiers>
        <_>
          <internalNodes>
            0 -1 32 1.1082148551940918e-01</internalNodes>
          <leafValues>
            -6.9035530090332031e-01 8.8235294818878174e-01</leafValues></_>
        <_>
          <internalNodes>
            0 -1 193 1.0835938155651093e-01</internalNodes>
          <leafValues>
            -2.3153196275234222e-01 4.2930436134338379e-01</leafValues></_>
        <_>
          <internalNodes>
            0 -1 24 4.0854133665561676e-02</internalNodes>
          <leafValues>
            7.5150951743125916e-02 -4.8929157853126526e-01</leafValues></_>
        <_>
          <internalNodes>
            0 -1 69 1.0284730233252048e-02</internalNodes>
          <leafValues>
            2.5393444299697876e-01 -1.6838863492012024e-01</leafValues></_>
        <_>
          <internalNodes>
            0 -1 21 2.3866170085966587e-03</internalNodes>
          <leafValues>
            2.7803850173950195e-01 -1.1729530990123749e-01</leafValues></_>
        <_>
          <internalNodes>
            0 -1 98 2.7753430604934692e-01</internalNodes>
          <leafValues>
            -6.4489588141441345e-02 7.0394045114517212e-01</leafValues></_>
        <_>
          <internalNodes>
            0 -1 208 1.1491627991199493e-01</internalNodes>
          <leafValues>
            -3.0918683856725693e-02 8.1129074096679688e-01</leafValues></_>
        <_>
          <internalNodes>
            0 -1 89 3.2845479436218739e-03</internalNodes>
          <leafValues>
            2.2141914069652557e-01 -1.2415326386690140e-01</leafValues></_>
        <_>
          <internalNodes>
            0 -1 166 5.4358787834644318e-02</internalNodes>
          <leafValues>
            2.5353930890560150e-02 -6.6266965866088867e-01</leafValues></_>
        <_>
          <internalNodes>
            0 -1 143 1.3844746351242065e-01</internalNodes>
          <leafValues>
            -2.3821219801902771e-02 8.2044607400894165e-01</leafValues></_>
        <_>
          <internalNodes>
            0 -1 126 4.5669067651033401e-02</internalNodes>
          <leafValues>
            -3.3065222203731537e-02 7.0875829458236694e-01</leafValues></_>
        <_>
          <internalNodes>
            0 -1 62 5.4687172174453735e-02</internalNodes>
          <leafValues>
            3.4805212169885635e-02 -8.9856272935867310e-01</leafValues></_>
        <_>
          <internalNodes>
            0 -1 215 4.5112766325473785e-02</internalNodes>
          <leafValues>
            -6.4165346324443817e-02 5.2493107318878174e-01</leafValues></_>
        <_>
          <internalNodes>
            0 -1 26 1.1473858729004860e-02</internalNodes>
          <leafValues>
            1.3078343868255615e-01 -1.8799918889999390e-01</leafValues></_>
        <_>
          <internalNodes>
            0 -1 184 6.6582411527633667e-02</internalNodes>
          <leafValues>
            3.0319809913635254e-02 -6.9485598802566528e-01</leafValues></_>
        <_>
          <internalNodes>
            0 -1 181 1.1108785867691040e-02</internalNodes>
          <leafValues>
            3.4733116626739502e-01 -9.4005756080150604e-02</leafValues></_>
        <_>
          <internalNodes>
            0 -1 124 1.8681997060775757e-01</internalNodes>
          <leafValues>
            1.7967909574508667e-02 -9.5560777187347412e-01</leafValues></_>
        <_>
          <internalNodes>
            0 -1 219 1.6525160521268845e-02</internalNodes>
          <leafValues>
            -2.9422214627265930e-01 7.3831267654895782e-02</leafValues></_>
        <_>
          <internalNodes>
            0 -1 59 4.4077746570110321e-02</internalNodes>
          <leafValues>
            2.0244264602661133e-01 -1.4448288083076477e-01</leafValues></_>
        <_>
          <internalNodes>
            0 -1 141 2.0719978958368301e-02</internalNodes>
          <leafValues>
            1.2370111048221588e-01 -2.1274152398109436e-01</leafValues></_>
        <_>
          <internalNodes>
            0 -1 124 5.2856959402561188e-02</internalNodes>
          <leafValues>
            -9.8533399403095245e-02 3.1718671321868896e-01</leafValues></_>
        <_>
          <internalNodes>
            0 -1 4 2.8091680258512497e-02</internalNodes>
          <leafValues>
            1.0389205068349838e-01 -2.7046474814414978e-01</leafValues></_>
        <_>
          <internalNodes>
            0 -1 42 5.2495524287223816e-03</internalNodes>
          <leafValues>
            -4.4268611073493958e-01 6.2782801687717438e-02</leafValues></_>
        <_>
          <internalNodes>
            0 -1 64 1.3181039690971375e-01</internalNodes>
          <leafValues>
            -6.3600897789001465e-02 4.3813455104827881e-01</leafValues></_>
        <_>
          <internalNodes>
            0 -1 103 1.0565709322690964e-02</internalNodes>
          <leafValues>
            3.1227216124534607e-01 -1.0794894397258759e-01</leafValues></_>
        <_>
          <internalNodes>
            0 -1 17 1.9245402514934540e-01</internalNodes>
          <leafValues>
            -3.0738582834601402e-02 8.9931648969650269e-01</leafValues></_>
        <_>
          <internalNodes>
            0 -1 167 3.8633868098258972e-02</internalNodes>
          <leafValues>
            1.7217122018337250e-01 -1.4754590392112732e-01</leafValues></_>
        <_>
          <internalNodes>
            0 -1 170 5.7746269740164280e-03</internalNodes>
          <leafValues>
            1.7165532708168030e-01 -2.0538325607776642e-01</leafValues></_>
        <_>
          <internalNodes>
            0 -1 44 8.0884220078587532e-03</internalNodes>
          <leafValues>
            -1.3075634837150574e-01 2.1244619786739349e-01</leafValues></_>
        <_>
          <internalNodes>
            0 -1 28 1.4356260187923908e-02</internalNodes>
          <leafValues>
            -3.4611910581588745e-01 7.9399824142456055e-02</leafValues></_>
        <_>
          <internalNodes>
            0 -1 78 7.3513597249984741e-02</internalNodes>
          <leafValues>
            5.9771943837404251e-02 -4.0954187512397766e-01</leafValues></_>
        <_>
          <internalNodes>
            0 -1 11 1.1078075319528580e-01</internalNodes>
          <leafValues>
            -5.8191716670989990e-02 5.2740430831909180e-01</leafValues></_>
        <_>
          <internalNodes>
            0 -1 7 6.7569643259048462e-02</internalNodes>
          <leafValues>
            -3.0800798907876015e-02 7.6343530416488647e-01</leafValues></_>
        <_>
          <internalNodes>
            0 -1 27 6.7366048693656921e-02</internalNodes>
          <leafValues>
            -1.1400651186704636e-01 2.3232437670230865e-01</leafValues></_>
        <_>
          <internalNodes>
            0 -1 217 4.2888440191745758e-02</internalNodes>
          <leafValues>
            5.1430456340312958e-02 -4.8010534048080444e-01</leafValues></_></weakClassifiers></_>
    <!-- stage 13 -->
    <_>
      <maxWeakCount>36</maxWeakCount>
      <stageThreshold>-1.2088686227798462e+00</stageThreshold>
      <weakClassifiers>
        <_>
          <internalNodes>
            0 -1 171 1.4523087441921234e-01</internalNodes>
          <leafValues>
            -6.8670618534088135e-01 5.5555558204650879e-01</leafValues></_>
        <_>
          <internalNodes>
            0 -1 112 3.3642962574958801e-02</internalNodes>
          <leafValues>
            -7.8731834888458252e-02 -5.0993639230728149e-01</leafValues></_>
        <_>
          <internalNodes>
            0 -1 29 5.9578500688076019e-02</internalNodes>
          <leafValues>
            -1.2161480635404587e-01 3.5878780484199524e-01</leafValues></_>
        <_>
          <internalNodes>
            0 -1 28 1.3547790050506592e-01</internalNodes>
          <leafValues>
            7.0166252553462982e-02 -1.</leafValues></_>
        <_>
          <internalNodes>
            0 -1 134 1.8699231743812561e-01</internalNodes>
          <leafValues>
            -5.5807717144489288e-02 4.7684660553932190e-01</leafValues></_>
        <_>
          <internalNodes>
            0 -1 9 3.0714131891727448e-02</internalNodes>
          <leafValues>
            1.3072019815444946e-01 -1.9299766421318054e-01</leafValues></_>
        <_>
          <internalNodes>
            0 -1 135 3.9739921689033508e-02</internalNodes>
          <leafValues>
            2.7775296941399574e-02 -4.4997900724411011e-01</leafValues></_>
        <_>
          <internalNodes>
            0 -1 20 1.0048536583781242e-02</internalNodes>
          <leafValues>
            1.3729046285152435e-01 -2.3147760331630707e-01</leafValues></_>
        <_>
          <internalNodes>
            0 -1 116 4.6448986977338791e-02</internalNodes>
          <leafValues>
            5.5282294750213623e-02 -4.6123060584068298e-01</leafValues></_>
        <_>
          <internalNodes>
            0 -1 146 3.6961916834115982e-02</internalNodes>
          <leafValues>
            4.6919450163841248e-02 -3.6470457911491394e-01</leafValues></_>
        <_>
          <internalNodes>
            0 -1 71 6.7279234528541565e-02</internalNodes>
          <leafValues>
            -6.5940335392951965e-02 4.1876104474067688e-01</leafValues></_>
        <_>
          <internalNodes>
            0 -1 49 1.0884174704551697e-01</internalNodes>
          <leafValues>
            3.1874254345893860e-02 -5.9356069564819336e-01</leafValues></_>
        <_>
          <internalNodes>
            0 -1 30 3.9314452442340553e-04</internalNodes>
          <leafValues>
            -8.8360774517059326e-01 4.0441140532493591e-02</leafValues></_>
        <_>
          <internalNodes>
            0 -1 123 6.1809783801436424e-04</internalNodes>
          <leafValues>
            -7.0239728689193726e-01 2.9220964759588242e-02</leafValues></_>
        <_>
          <internalNodes>
            0 -1 190 1.7986323684453964e-02</internalNodes>
          <leafValues>
            -7.1728333830833435e-02 3.3604577183723450e-01</leafValues></_>
        <_>
          <internalNodes>
            0 -1 167 1.2163931503891945e-02</internalNodes>
          <leafValues>
            -3.5891598463058472e-01 6.6616266965866089e-02</leafValues></_>
        <_>
          <internalNodes>
            0 -1 202 6.9756343960762024e-02</internalNodes>
          <leafValues>
            -6.1447031795978546e-02 6.3091772794723511e-01</leafValues></_>
        <_>
          <internalNodes>
            0 -1 129 2.5606763362884521e-01</internalNodes>
          <leafValues>
            -2.8029607608914375e-02 7.1571969985961914e-01</leafValues></_>
        <_>
          <internalNodes>
            0 -1 222 1.2456147000193596e-02</internalNodes>
          <leafValues>
            9.8352231085300446e-02 -2.4355928599834442e-01</leafValues></_>
        <_>
          <internalNodes>
            0 -1 84 4.8966151662170887e-03</internalNodes>
          <leafValues>
            4.7467344999313354e-01 -4.7874934971332550e-02</leafValues></_>
        <_>
          <internalNodes>
            0 -1 67 5.5339779704809189e-02</internalNodes>
          <leafValues>
            4.1587173938751221e-02 -6.1503183841705322e-01</leafValues></_>
        <_>
          <internalNodes>
            0 -1 9 7.0064445026218891e-04</internalNodes>
          <leafValues>
            -8.7968057394027710e-01 1.9615622237324715e-02</leafValues></_>
        <_>
          <internalNodes>
            0 -1 144 1.7987444996833801e-02</internalNodes>
          <leafValues>
            -2.7353280782699585e-01 7.4022196233272552e-02</leafValues></_>
        <_>
          <internalNodes>
            0 -1 115 6.3393384218215942e-02</internalNodes>
          <leafValues>
            -5.0867535173892975e-02 5.8016723394393921e-01</leafValues></_>
        <_>
          <internalNodes>
            0 -1 85 1.7362184822559357e-02</internalNodes>
          <leafValues>
            -3.6049225926399231e-01 7.8868493437767029e-02</leafValues></_>
        <_>
          <internalNodes>
            0 -1 6 2.4471446871757507e-02</internalNodes>
          <leafValues>
            -5.3716152906417847e-02 4.3424794077873230e-01</leafValues></_>
        <_>
          <internalNodes>
            0 -1 57 4.7343127429485321e-02</internalNodes>
          <leafValues>
            3.0289240181446075e-02 -7.8216946125030518e-01</leafValues></_>
        <_>
          <internalNodes>
            0 -1 92 6.6722705960273743e-03</internalNodes>
          <leafValues>
            3.9652997255325317e-01 -6.1903189867734909e-02</leafValues></_>
        <_>
          <internalNodes>
            0 -1 1 4.6339925378561020e-02</internalNodes>
          <leafValues>
            -1.3317406177520752e-01 1.8708091974258423e-01</leafValues></_>
        <_>
          <internalNodes>
            0 -1 217 4.2804986238479614e-02</internalNodes>
          <leafValues>
            5.9882525354623795e-02 -4.8027434945106506e-01</leafValues></_>
        <_>
          <internalNodes>
            0 -1 181 2.2253026068210602e-01</internalNodes>
          <leafValues>
            -3.7309691309928894e-02 7.6204162836074829e-01</leafValues></_>
        <_>
          <internalNodes>
            0 -1 193 1.0816033184528351e-01</internalNodes>
          <leafValues>
            -4.2612176388502121e-02 4.5199751853942871e-01</leafValues></_>
        <_>
          <internalNodes>
            0 -1 41 5.4258577525615692e-02</internalNodes>
          <leafValues>
            1.2438149005174637e-01 -1.7963197827339172e-01</leafValues></_>
        <_>
          <internalNodes>
            0 -1 46 6.4734974876046181e-03</internalNodes>
          <leafValues>
            1.8756771087646484e-01 -1.2605588138103485e-01</leafValues></_>
        <_>
          <internalNodes>
            0 -1 207 1.7454922199249268e-02</internalNodes>
          <leafValues>
            1.7206852138042450e-01 -1.7736819386482239e-01</leafValues></_>
        <_>
          <internalNodes>
            0 -1 195 1.2278436683118343e-02</internalNodes>
          <leafValues>
            -9.9688477814197540e-02 2.5883173942565918e-01</leafValues></_></weakClassifiers></_>
    <!-- stage 14 -->
    <_>
      <maxWeakCount>32</maxWeakCount>
      <stageThreshold>-1.4473522901535034e+00</stageThreshold>
      <weakClassifiers>
        <_>
          <internalNodes>
            0 -1 128 1.1959519982337952e-01</internalNodes>
          <leafValues>
            -6.9152539968490601e-01 7.8947371244430542e-01</leafValues></_>
        <_>
          <internalNodes>
            0 -1 206 9.4470888376235962e-02</internalNodes>
          <leafValues>
            -2.6036831736564636e-01 4.0489500761032104e-01</leafValues></_>
        <_>
          <internalNodes>
            0 -1 72 3.5997615195810795e-03</internalNodes>
          <leafValues>
            4.1045591235160828e-01 -7.7077448368072510e-02</leafValues></_>
        <_>
          <internalNodes>
            0 -1 40 1.3272172212600708e-01</internalNodes>
          <leafValues>
            -6.0140553861856461e-02 4.4047236442565918e-01</leafValues></_>
        <_>
          <internalNodes>
            0 -1 34 5.9476350434124470e-03</internalNodes>
          <leafValues>
            4.9354758858680725e-01 -5.5229611694812775e-02</leafValues></_>
        <_>
          <internalNodes>
            0 -1 148 1.0423512139823288e-04</internalNodes>
          <leafValues>
            -8.6664456129074097e-01 3.2798603177070618e-02</leafValues></_>
        <_>
          <internalNodes>
            0 -1 148 7.2641093283891678e-03</internalNodes>
          <leafValues>
            2.5622189044952393e-01 -1.1923921853303909e-01</leafValues></_>
        <_>
          <internalNodes>
            0 -1 48 2.1213006973266602e-01</internalNodes>
          <leafValues>
            -6.3709147274494171e-02 4.5900604128837585e-01</leafValues></_>
        <_>
          <internalNodes>
            0 -1 120 1.0761234909296036e-02</internalNodes>
          <leafValues>
            -9.4977617263793945e-02 2.7730578184127808e-01</leafValues></_>
        <_>
          <internalNodes>
            0 -1 87 4.5081436634063721e-02</internalNodes>
          <leafValues>
            5.3512051701545715e-02 -4.7355765104293823e-01</leafValues></_>
        <_>
          <internalNodes>
            0 -1 157 8.3527982234954834e-02</internalNodes>
          <leafValues>
            -6.1234861612319946e-02 4.1079619526863098e-01</leafValues></_>
        <_>
          <internalNodes>
            0 -1 64 9.5631480216979980e-02</internalNodes>
          <leafValues>
            -1.2276740372180939e-01 2.5532960891723633e-01</leafValues></_>
        <_>
          <internalNodes>
            0 -1 185 3.3344514667987823e-02</internalNodes>
          <leafValues>
            -4.3494008481502533e-02 6.9464707374572754e-01</leafValues></_>
        <_>
          <internalNodes>
            0 -1 17 5.0168181769549847e-03</internalNodes>
          <leafValues>
            4.7199508547782898e-01 -5.1143698394298553e-02</leafValues></_>
        <_>
          <internalNodes>
            0 -1 85 7.8060217201709747e-02</internalNodes>
          <leafValues>
            6.8407528102397919e-02 -3.8452661037445068e-01</leafValues></_>
        <_>
          <internalNodes>
            0 -1 145 9.9323533475399017e-02</internalNodes>
          <leafValues>
            -3.5353370010852814e-02 5.2978223562240601e-01</leafValues></_>
        <_>
          <internalNodes>
            0 -1 174 2.2520670294761658e-01</internalNodes>
          <leafValues>
            -5.4418362677097321e-02 5.5157774686813354e-01</leafValues></_>
        <_>
          <internalNodes>
            0 -1 192 5.1485199481248856e-02</internalNodes>
          <leafValues>
            -1.0326907783746719e-01 2.5242400169372559e-01</leafValues></_>
        <_>
          <internalNodes>
            0 -1 126 2.8311368077993393e-02</internalNodes>
          <leafValues>
            -3.2427575439214706e-02 5.6445026397705078e-01</leafValues></_>
        <_>
          <internalNodes>
            0 -1 210 4.5546963810920715e-02</internalNodes>
          <leafValues>
            8.5365846753120422e-02 -2.8820550441741943e-01</leafValues></_>
        <_>
          <internalNodes>
            0 -1 123 1.8987977877259254e-02</internalNodes>
          <leafValues>
            -1.8810179829597473e-01 1.6334658861160278e-01</leafValues></_>
        <_>
          <internalNodes>
            0 -1 183 6.2111772596836090e-02</internalNodes>
          <leafValues>
            -8.4783509373664856e-02 3.9933538436889648e-01</leafValues></_>
        <_>
          <internalNodes>
            0 -1 50 1.6533937305212021e-02</internalNodes>
          <leafValues>
            1.5027832984924316e-01 -1.8628624081611633e-01</leafValues></_>
        <_>
          <internalNodes>
            0 -1 66 1.7885079607367516e-02</internalNodes>
          <leafValues>
            -1.8916691839694977e-01 1.7047637701034546e-01</leafValues></_>
        <_>
          <internalNodes>
            0 -1 67 3.6379396915435791e-02</internalNodes>
          <leafValues>
            6.5146744251251221e-02 -4.0341004729270935e-01</leafValues></_>
        <_>
          <internalNodes>
            0 -1 218 8.5326815024018288e-03</internalNodes>
          <leafValues>
            3.8383334875106812e-01 -8.1025093793869019e-02</leafValues></_>
        <_>
          <internalNodes>
            0 -1 28 6.3487868756055832e-03</internalNodes>
          <leafValues>
            -5.2393841743469238e-01 5.1108364015817642e-02</leafValues></_>
        <_>
          <internalNodes>
            0 -1 121 6.0236558318138123e-02</internalNodes>
          <leafValues>
            -4.8138648271560669e-02 6.8330264091491699e-01</leafValues></_>
        <_>
          <internalNodes>
            0 -1 114 5.1758522167801857e-03</internalNodes>
          <leafValues>
            1.6892726719379425e-01 -2.1435126662254333e-01</leafValues></_>
        <_>
          <internalNodes>
            0 -1 201 1.7147950828075409e-02</internalNodes>
          <leafValues>
            -9.3149974942207336e-02 3.6447706818580627e-01</leafValues></_>
        <_>
          <internalNodes>
            0 -1 181 2.0394973456859589e-01</internalNodes>
          <leafValues>
            -3.5857148468494415e-02 7.0326334238052368e-01</leafValues></_>
        <_>
          <internalNodes>
            0 -1 158 5.7371884584426880e-02</internalNodes>
          <leafValues>
            5.2056889981031418e-02 -5.4407715797424316e-01</leafValues></_></weakClassifiers></_>
    <!-- stage 15 -->
    <_>
      <maxWeakCount>45</maxWeakCount>
      <stageThreshold>-1.3554670810699463e+00</stageThreshold>
      <weakClassifiers>
        <_>
          <internalNodes>
            0 -1 45 9.1657578945159912e-02</internalNodes>
          <leafValues>
            -6.8956744670867920e-01 6.0000002384185791e-01</leafValues></_>
        <_>
          <internalNodes>
            0 -1 50 7.4720919132232666e-02</internalNodes>
          <leafValues>
            -2.4856238067150116e-01 2.7669760584831238e-01</leafValues></_>
        <_>
          <internalNodes>
            0 -1 27 1.8024396896362305e-01</internalNodes>
          <leafValues>
            -4.1063785552978516e-02 5.8924305438995361e-01</leafValues></_>
        <_>
          <internalNodes>
            0 -1 100 1.9214635249227285e-03</internalNodes>
          <leafValues>
            3.4519442915916443e-01 -6.0442350804805756e-02</leafValues></_>
        <_>
          <internalNodes>
            0 -1 157 8.7519392371177673e-02</internalNodes>
          <leafValues>
            -6.5650261938571930e-02 3.7620294094085693e-01</leafValues></_>
        <_>
          <internalNodes>
            0 -1 64 9.5537573099136353e-02</internalNodes>
          <leafValues>
            -1.2274703383445740e-01 2.7616736292839050e-01</leafValues></_>
        <_>
          <internalNodes>
            0 -1 212 4.5526720583438873e-02</internalNodes>
          <leafValues>
            1.3499610126018524e-01 -1.4150860905647278e-01</leafValues></_>
        <_>
          <internalNodes>
            0 -1 180 1.2358948588371277e-01</internalNodes>
          <leafValues>
            2.0999761298298836e-02 -1.</leafValues></_>
        <_>
          <internalNodes>
            0 -1 142 9.8145276308059692e-02</internalNodes>
          <leafValues>
            -2.7623925358057022e-02 9.3697798252105713e-01</leafValues></_>
        <_>
          <internalNodes>
            0 -1 133 3.9586454629898071e-02</internalNodes>
          <leafValues>
            6.7208893597126007e-02 -2.9224279522895813e-01</leafValues></_>
        <_>
          <internalNodes>
            0 -1 70 1.6581034660339355e-01</internalNodes>
          <leafValues>
            -3.9902519434690475e-02 5.4580056667327881e-01</leafValues></_>
        <_>
          <internalNodes>
            0 -1 141 8.2653015851974487e-04</internalNodes>
          <leafValues>
            -6.8143963813781738e-01 2.4724924936890602e-02</leafValues></_>
        <_>
          <internalNodes>
            0 -1 128 1.9119153148494661e-04</internalNodes>
          <leafValues>
            -3.7316092848777771e-01 6.2818162143230438e-02</leafValues></_>
        <_>
          <internalNodes>
            0 -1 128 1.6092362347990274e-03</internalNodes>
          <leafValues>
            3.0786320567131042e-01 -6.5790578722953796e-02</leafValues></_>
        <_>
          <internalNodes>
            0 -1 92 2.4089947342872620e-01</internalNodes>
          <leafValues>
            -2.8617642819881439e-02 1.</leafValues></_>
        <_>
          <internalNodes>
            0 -1 187 1.2543095648288727e-01</internalNodes>
          <leafValues>
            -1.2388537637889385e-02 9.5208871364593506e-01</leafValues></_>
        <_>
          <internalNodes>
            0 -1 155 1.3312922418117523e-01</internalNodes>
          <leafValues>
            -5.3235054016113281e-02 3.6305111646652222e-01</leafValues></_>
        <_>
          <internalNodes>
            0 -1 104 2.5368489325046539e-02</internalNodes>
          <leafValues>
            -1.4672918617725372e-01 1.9602540135383606e-01</leafValues></_>
        <_>
          <internalNodes>
            0 -1 19 9.1630686074495316e-03</internalNodes>
          <leafValues>
            3.1693199276924133e-01 -1.0356162488460541e-01</leafValues></_>
        <_>
          <internalNodes>
            0 -1 43 2.9225971084088087e-03</internalNodes>
          <leafValues>
            -4.8077389597892761e-01 4.8121191561222076e-02</leafValues></_>
        <_>
          <internalNodes>
            0 -1 72 1.4726395718753338e-02</internalNodes>
          <leafValues>
            1.2057752162218094e-01 -1.5849073231220245e-01</leafValues></_>
        <_>
          <internalNodes>
            0 -1 70 3.2608233392238617e-02</internalNodes>
          <leafValues>
            1.5296010673046112e-01 -1.9041255116462708e-01</leafValues></_>
        <_>
          <internalNodes>
            0 -1 154 2.0209296781104058e-04</internalNodes>
          <leafValues>
            -6.6486603021621704e-01 4.1883483529090881e-02</leafValues></_>
        <_>
          <internalNodes>
            0 -1 75 2.6990643236786127e-03</internalNodes>
          <leafValues>
            2.9766213893890381e-01 -7.6483383774757385e-02</leafValues></_>
        <_>
          <internalNodes>
            0 -1 125 3.3105760812759399e-02</internalNodes>
          <leafValues>
            7.7659368515014648e-02 -2.9211527109146118e-01</leafValues></_>
        <_>
          <internalNodes>
            0 -1 33 3.4501939080655575e-03</internalNodes>
          <leafValues>
            2.6090905070304871e-01 -9.0239807963371277e-02</leafValues></_>
        <_>
          <internalNodes>
            0 -1 111 1.8610279262065887e-01</internalNodes>
          <leafValues>
            2.2596172988414764e-02 -9.2087852954864502e-01</leafValues></_>
        <_>
          <internalNodes>
            0 -1 82 1.0740029066801071e-01</internalNodes>
          <leafValues>
            1.1614676564931870e-02 -9.5307803153991699e-01</leafValues></_>
        <_>
          <internalNodes>
            0 -1 77 1.1398317292332649e-02</internalNodes>
          <leafValues>
            2.8496208786964417e-01 -8.3316050469875336e-02</leafValues></_>
        <_>
          <internalNodes>
            0 -1 0 1.8241481855511665e-02</internalNodes>
          <leafValues>
            -1.7589646577835083e-01 1.4084105193614960e-01</leafValues></_>
        <_>
          <internalNodes>
            0 -1 178 3.6825840361416340e-03</internalNodes>
          <leafValues>
            1.4470462501049042e-01 -1.3872177898883820e-01</leafValues></_>
        <_>
          <internalNodes>
            0 -1 62 8.3398784045130014e-04</internalNodes>
          <leafValues>
            -3.7098896503448486e-01 5.6534297764301300e-02</leafValues></_>
        <_>
          <internalNodes>
            0 -1 9 6.0876097530126572e-02</internalNodes>
          <leafValues>
            3.7187445908784866e-02 -5.0480514764785767e-01</leafValues></_>
        <_>
          <internalNodes>
            0 -1 173 6.3181862235069275e-02</internalNodes>
          <leafValues>
            -5.4687459021806717e-02 4.3401402235031128e-01</leafValues></_>
        <_>
          <internalNodes>
            0 -1 0 5.8559726923704147e-02</internalNodes>
          <leafValues>
            3.5367380827665329e-02 -5.5786365270614624e-01</leafValues></_>
        <_>
          <internalNodes>
            0 -1 10 4.1720204055309296e-02</internalNodes>
          <leafValues>
            1.1974021047353745e-01 -1.5803715586662292e-01</leafValues></_>
        <_>
          <internalNodes>
            0 -1 10 2.3374047130346298e-02</internalNodes>
          <leafValues>
            -2.3744915425777435e-01 9.2859201133251190e-02</leafValues></_>
        <_>
          <internalNodes>
            0 -1 152 1.1181786656379700e-02</internalNodes>
          <leafValues>
            -9.3777030706405640e-02 2.3481272161006927e-01</leafValues></_>
        <_>
          <internalNodes>
            0 -1 147 1.4264382421970367e-02</internalNodes>
          <leafValues>
            7.5577713549137115e-02 -2.9077637195587158e-01</leafValues></_>
        <_>
          <internalNodes>
            0 -1 122 7.4496857821941376e-02</internalNodes>
          <leafValues>
            -3.4251317381858826e-02 7.6623374223709106e-01</leafValues></_>
        <_>
          <internalNodes>
            0 -1 54 7.1786148473620415e-03</internalNodes>
          <leafValues>
            -5.6457501649856567e-01 4.3415673077106476e-02</leafValues></_>
        <_>
          <internalNodes>
            0 -1 200 4.9588168039917946e-03</internalNodes>
          <leafValues>
            2.3917385935783386e-01 -8.2207448780536652e-02</leafValues></_>
        <_>
          <internalNodes>
            0 -1 86 1.3858892023563385e-01</internalNodes>
          <leafValues>
            -3.8259420543909073e-02 5.9518378973007202e-01</leafValues></_>
        <_>
          <internalNodes>
            0 -1 182 2.4333298206329346e-02</internalNodes>
          <leafValues>
            -2.9034540057182312e-01 7.2472199797630310e-02</leafValues></_>
        <_>
          <internalNodes>
            0 -1 205 3.1463526189327240e-02</internalNodes>
          <leafValues>
            2.2123496234416962e-01 -1.2057279050350189e-01</leafValues></_></weakClassifiers></_>
    <!-- stage 16 -->
    <_>
      <maxWeakCount>36</maxWeakCount>
      <stageThreshold>-1.4119070768356323e+00</stageThreshold>
      <weakClassifiers>
        <_>
          <internalNodes>
            0 -1 58 1.0420043766498566e-01</internalNodes>
          <leafValues>
            -6.8776369094848633e-01 1.</leafValues></_>
        <_>
          <internalNodes>
            0 -1 66 7.1046531200408936e-02</internalNodes>
          <leafValues>
            -2.4861045181751251e-01 2.2745949029922485e-01</leafValues></_>
        <_>
          <internalNodes>
            0 -1 94 2.9975030571222305e-02</internalNodes>
          <leafValues>
            9.6349813044071198e-02 -3.8195720314979553e-01</leafValues></_>
        <_>
          <internalNodes>
            0 -1 161 1.3346444815397263e-02</internalNodes>
          <leafValues>
            1.8341219425201416e-01 -1.5130244195461273e-01</leafValues></_>
        <_>
          <internalNodes>
            0 -1 187 2.2598020732402802e-02</internalNodes>
          <leafValues>
            -5.7202905416488647e-02 4.4479987025260925e-01</leafValues></_>
        <_>
          <internalNodes>
            0 -1 53 2.4490477144718170e-01</internalNodes>
          <leafValues>
            -3.1864192336797714e-02 9.3630748987197876e-01</leafValues></_>
        <_>
          <internalNodes>
            0 -1 172 4.8287892714142799e-03</internalNodes>
          <leafValues>
            2.4768902361392975e-01 -9.6688859164714813e-02</leafValues></_>
        <_>
          <internalNodes>
            0 -1 1 1.5164104104042053e-01</internalNodes>
          <leafValues>
            -6.6693022847175598e-02 5.4778522253036499e-01</leafValues></_>
        <_>
          <internalNodes>
            0 -1 111 1.5348543412983418e-02</internalNodes>
          <leafValues>
            1.5896330773830414e-01 -1.6707195341587067e-01</leafValues></_>
        <_>
          <internalNodes>
            0 -1 86 9.1063410043716431e-02</internalNodes>
          <leafValues>
            -6.9727003574371338e-02 3.8444811105728149e-01</leafValues></_>
        <_>
          <internalNodes>
            0 -1 85 7.8060217201709747e-02</internalNodes>
          <leafValues>
            1.0559810698032379e-01 -4.4748330116271973e-01</leafValues></_>
        <_>
          <internalNodes>
            0 -1 165 6.3340343534946442e-02</internalNodes>
          <leafValues>
            -6.5751024521887302e-03 -1.</leafValues></_>
        <_>
          <internalNodes>
            0 -1 20 2.3625578731298447e-02</internalNodes>
          <leafValues>
            -6.5240405499935150e-02 3.6669856309890747e-01</leafValues></_>
        <_>
          <internalNodes>
            0 -1 37 4.3577267788350582e-03</internalNodes>
          <leafValues>
            3.0358585715293884e-01 -7.8302741050720215e-02</leafValues></_>
        <_>
          <internalNodes>
            0 -1 153 9.5819808542728424e-02</internalNodes>
          <leafValues>
            6.5112628042697906e-02 -8.0512952804565430e-01</leafValues></_>
        <_>
          <internalNodes>
            0 -1 82 3.9581153541803360e-02</internalNodes>
          <leafValues>
            -8.1263072788715363e-02 4.8734599351882935e-01</leafValues></_>
        <_>
          <internalNodes>
            0 -1 35 1.8945645540952682e-02</internalNodes>
          <leafValues>
            -3.6469498276710510e-01 8.5322640836238861e-02</leafValues></_>
        <_>
          <internalNodes>
            0 -1 190 2.2887263447046280e-02</internalNodes>
          <leafValues>
            -3.3147618174552917e-02 5.6091272830963135e-01</leafValues></_>
        <_>
          <internalNodes>
            0 -1 14 3.3403025008738041e-04</internalNodes>
          <leafValues>
            -4.4804289937019348e-01 4.9517035484313965e-02</leafValues></_>
        <_>
          <internalNodes>
            0 -1 199 2.5627622380852699e-03</internalNodes>
          <leafValues>
            7.7092593908309937e-01 -2.9206387698650360e-02</leafValues></_>
        <_>
          <internalNodes>
            0 -1 120 1.8422771245241165e-02</internalNodes>
          <leafValues>
            6.5732412040233612e-02 -4.5103439688682556e-01</leafValues></_>
        <_>
          <internalNodes>
            0 -1 211 2.0989015698432922e-01</internalNodes>
          <leafValues>
            -3.3297520130872726e-02 8.9549809694290161e-01</leafValues></_>
        <_>
          <internalNodes>
            0 -1 109 6.0262806713581085e-02</internalNodes>
          <leafValues>
            -4.0187191218137741e-02 5.6478965282440186e-01</leafValues></_>
        <_>
          <internalNodes>
            0 -1 154 2.9680408537387848e-02</internalNodes>
          <leafValues>
            1.7076922953128815e-01 -2.3082298040390015e-01</leafValues></_>
        <_>
          <internalNodes>
            0 -1 191 2.0904269069433212e-02</internalNodes>
          <leafValues>
            -1.5767902135848999e-01 2.2973729670047760e-01</leafValues></_>
        <_>
          <internalNodes>
            0 -1 123 3.3120572566986084e-02</internalNodes>
          <leafValues>
            9.8944045603275299e-02 -3.6043930053710938e-01</leafValues></_>
        <_>
          <internalNodes>
            0 -1 118 1.4792055822908878e-02</internalNodes>
          <leafValues>
            -4.4046425819396973e-01 5.9813782572746277e-02</leafValues></_>
        <_>
          <internalNodes>
            0 -1 119 2.6767817325890064e-03</internalNodes>
          <leafValues>
            4.8689222335815430e-01 -8.3733320236206055e-02</leafValues></_>
        <_>
          <internalNodes>
            0 -1 68 1.4628408825956285e-04</internalNodes>
          <leafValues>
            -3.7414905428886414e-01 7.8685007989406586e-02</leafValues></_>
        <_>
          <internalNodes>
            0 -1 76 5.7244673371315002e-02</internalNodes>
          <leafValues>
            -5.5058300495147705e-02 5.0422394275665283e-01</leafValues></_>
        <_>
          <internalNodes>
            0 -1 203 5.3541576489806175e-03</internalNodes>
          <leafValues>
            3.3315899968147278e-01 -8.3626836538314819e-02</leafValues></_>
        <_>
          <internalNodes>
            0 -1 221 4.4947825372219086e-02</internalNodes>
          <leafValues>
            8.4327749907970428e-02 -3.9781922101974487e-01</leafValues></_>
        <_>
          <internalNodes>
            0 -1 107 4.1614752262830734e-03</internalNodes>
          <leafValues>
            1.8524016439914703e-01 -1.5804074704647064e-01</leafValues></_>
        <_>
          <internalNodes>
            0 -1 93 6.5192595124244690e-02</internalNodes>
          <leafValues>
            1.1738308519124985e-01 -2.5459739565849304e-01</leafValues></_>
        <_>
          <internalNodes>
            0 -1 219 1.8629971891641617e-02</internalNodes>
          <leafValues>
            -2.6671969890594482e-01 1.0281946510076523e-01</leafValues></_>
        <_>
          <internalNodes>
            0 -1 27 1.2089396826922894e-02</internalNodes>
          <leafValues>
            2.8273117542266846e-01 -1.1495247483253479e-01</leafValues></_></weakClassifiers></_>
    <!-- stage 17 -->
    <_>
      <maxWeakCount>32</maxWeakCount>
      <stageThreshold>-1.4455903768539429e+00</stageThreshold>
      <weakClassifiers>
        <_>
          <internalNodes>
            0 -1 171 1.1179523915052414e-01</internalNodes>
          <leafValues>
            -6.9491523504257202e-01 1.</leafValues></_>
        <_>
          <internalNodes>
            0 -1 131 3.8982059806585312e-02</internalNodes>
          <leafValues>
            -8.1463560461997986e-02 -6.2096214294433594e-01</leafValues></_>
        <_>
          <internalNodes>
            0 -1 71 9.0962901711463928e-02</internalNodes>
          <leafValues>
            -7.2868108749389648e-02 5.2683359384536743e-01</leafValues></_>
        <_>
          <internalNodes>
            0 -1 12 1.6617483925074339e-03</internalNodes>
          <leafValues>
            5.4477411508560181e-01 -4.8443332314491272e-02</leafValues></_>
        <_>
          <internalNodes>
            0 -1 81 6.0974139720201492e-02</internalNodes>
          <leafValues>
            -2.5761930271983147e-02 7.8772360086441040e-01</leafValues></_>
        <_>
          <internalNodes>
            0 -1 110 1.1422010138630867e-02</internalNodes>
          <leafValues>
            -5.8516407012939453e-01 6.2204040586948395e-02</leafValues></_>
        <_>
          <internalNodes>
            0 -1 96 2.0319459959864616e-02</internalNodes>
          <leafValues>
            -4.8994969576597214e-02 6.2373387813568115e-01</leafValues></_>
        <_>
          <internalNodes>
            0 -1 224 1.3688823208212852e-02</internalNodes>
          <leafValues>
            1.3582316040992737e-01 -2.2991268336772919e-01</leafValues></_>
        <_>
          <internalNodes>
            0 -1 196 1.0864699259400368e-02</internalNodes>
          <leafValues>
            -8.8070347905158997e-02 3.3094000816345215e-01</leafValues></_>
        <_>
          <internalNodes>
            0 -1 170 1.4393497258424759e-02</internalNodes>
          <leafValues>
            9.2829689383506775e-02 -4.6435761451721191e-01</leafValues></_>
        <_>
          <internalNodes>
            0 -1 150 1.3058274984359741e-01</internalNodes>
          <leafValues>
            -8.3349570631980896e-02 3.9486649632453918e-01</leafValues></_>
        <_>
          <internalNodes>
            0 -1 181 9.4891274347901344e-03</internalNodes>
          <leafValues>
            4.2121770977973938e-01 -9.5668949186801910e-02</leafValues></_>
        <_>
          <internalNodes>
            0 -1 41 1.0354149341583252e-01</internalNodes>
          <leafValues>
            7.3115833103656769e-02 -5.6117737293243408e-01</leafValues></_>
        <_>
          <internalNodes>
            0 -1 42 5.2642747759819031e-03</internalNodes>
          <leafValues>
            -5.6792140007019043e-01 4.3273340910673141e-02</leafValues></_>
        <_>
          <internalNodes>
            0 -1 43 3.4415908157825470e-02</internalNodes>
          <leafValues>
            7.8515902161598206e-02 -4.1290310025215149e-01</leafValues></_>
        <_>
          <internalNodes>
            0 -1 192 1.3215643353760242e-02</internalNodes>
          <leafValues>
            3.5772672295570374e-01 -1.0376370698213577e-01</leafValues></_>
        <_>
          <internalNodes>
            0 -1 139 1.2528842687606812e-01</internalNodes>
          <leafValues>
            -1.1106739193201065e-01 3.4178441762924194e-01</leafValues></_>
        <_>
          <internalNodes>
            0 -1 1 1.7447656393051147e-01</internalNodes>
          <leafValues>
            -4.3682839721441269e-02 8.3990460634231567e-01</leafValues></_>
        <_>
          <internalNodes>
            0 -1 190 2.7191828936338425e-02</internalNodes>
          <leafValues>
            -3.9666496217250824e-02 7.3233467340469360e-01</leafValues></_>
        <_>
          <internalNodes>
            0 -1 151 9.3595191836357117e-02</internalNodes>
          <leafValues>
            -5.6983001530170441e-02 4.8440390825271606e-01</leafValues></_>
        <_>
          <internalNodes>
            0 -1 36 2.1110039949417114e-01</internalNodes>
          <leafValues>
            2.7710080146789551e-02 -9.4671547412872314e-01</leafValues></_>
        <_>
          <internalNodes>
            0 -1 68 3.1066549941897392e-02</internalNodes>
          <leafValues>
            -3.6945138126611710e-02 1.</leafValues></_>
        <_>
          <internalNodes>
            0 -1 204 1.6443148255348206e-01</internalNodes>
          <leafValues>
            -3.7386309355497360e-02 6.7484974861145020e-01</leafValues></_>
        <_>
          <internalNodes>
            0 -1 109 5.9748642146587372e-02</internalNodes>
          <leafValues>
            -4.1244007647037506e-02 6.1878967285156250e-01</leafValues></_>
        <_>
          <internalNodes>
            0 -1 168 1.1832794547080994e-01</internalNodes>
          <leafValues>
            -6.1258025467395782e-02 5.2117514610290527e-01</leafValues></_>
        <_>
          <internalNodes>
            0 -1 4 1.2886728160083294e-02</internalNodes>
          <leafValues>
            2.3783551156520844e-01 -1.7349062860012054e-01</leafValues></_>
        <_>
          <internalNodes>
            0 -1 88 1.5298949554562569e-02</internalNodes>
          <leafValues>
            -7.3247246444225311e-02 4.1596442461013794e-01</leafValues></_>
        <_>
          <internalNodes>
            0 -1 208 9.0535212075337768e-04</internalNodes>
          <leafValues>
            -3.7412318587303162e-01 8.1600122153759003e-02</leafValues></_>
        <_>
          <internalNodes>
            0 -1 171 1.8024124437943101e-03</internalNodes>
          <leafValues>
            3.3234280347824097e-01 -1.1457440257072449e-01</leafValues></_>
        <_>
          <internalNodes>
            0 -1 63 3.0290644615888596e-02</internalNodes>
          <leafValues>
            -1.3882170617580414e-01 2.5422412157058716e-01</leafValues></_>
        <_>
          <internalNodes>
            0 -1 17 1.9166481494903564e-01</internalNodes>
          <leafValues>
            -4.2973194271326065e-02 8.6200714111328125e-01</leafValues></_>
        <_>
          <internalNodes>
            0 -1 104 1.4483174309134483e-02</internalNodes>
          <leafValues>
            -1.9062311947345734e-01 1.9992314279079437e-01</leafValues></_></weakClassifiers></_>
    <!-- stage 18 -->
    <_>
      <maxWeakCount>24</maxWeakCount>
      <stageThreshold>-1.3615412712097168e+00</stageThreshold>
      <weakClassifiers>
        <_>
          <internalNodes>
            0 -1 90 7.2443976998329163e-02</internalNodes>
          <leafValues>
            -7.0357751846313477e-01 1.</leafValues></_>
        <_>
          <internalNodes>
            0 -1 71 8.1238716840744019e-02</internalNodes>
          <leafValues>
            -2.5552713871002197e-01 3.5932841897010803e-01</leafValues></_>
        <_>
          <internalNodes>
            0 -1 163 3.5082597285509109e-02</internalNodes>
          <leafValues>
            1.1658669263124466e-01 -5.1430106163024902e-01</leafValues></_>
        <_>
          <internalNodes>
            0 -1 86 3.7494961172342300e-02</internalNodes>
          <leafValues>
            -1.0366888344287872e-01 4.8486894369125366e-01</leafValues></_>
        <_>
          <internalNodes>
            0 -1 12 1.2974411249160767e-02</internalNodes>
          <leafValues>
            2.4943734705448151e-01 -2.3156939446926117e-01</leafValues></_>
        <_>
          <internalNodes>
            0 -1 81 1.8468081543687731e-04</internalNodes>
          <leafValues>
            -5.8581572771072388e-01 1.1552273482084274e-01</leafValues></_>
        <_>
          <internalNodes>
            0 -1 7 4.0481770411133766e-03</internalNodes>
          <leafValues>
            3.7592557072639465e-01 -1.5186662971973419e-01</leafValues></_>
        <_>
          <internalNodes>
            0 -1 134 1.7314441502094269e-01</internalNodes>
          <leafValues>
            -1.3537003099918365e-01 6.5201908349990845e-01</leafValues></_>
        <_>
          <internalNodes>
            0 -1 70 1.5462438575923443e-02</internalNodes>
          <leafValues>
            4.8034855723381042e-01 -1.4474117755889893e-01</leafValues></_>
        <_>
          <internalNodes>
            0 -1 145 4.0731395711190999e-04</internalNodes>
          <leafValues>
            -6.9005125761032104e-01 4.9821827560663223e-02</leafValues></_>
        <_>
          <internalNodes>
            0 -1 32 2.3052116855978966e-02</internalNodes>
          <leafValues>
            -6.4492963254451752e-02 7.8189170360565186e-01</leafValues></_>
        <_>
          <internalNodes>
            0 -1 74 6.2699159607291222e-03</internalNodes>
          <leafValues>
            2.3062939941883087e-01 -1.8789415061473846e-01</leafValues></_>
        <_>
          <internalNodes>
            0 -1 196 9.7544556483626366e-03</internalNodes>
          <leafValues>
            -1.7348025739192963e-01 4.3642199039459229e-01</leafValues></_>
        <_>
          <internalNodes>
            0 -1 127 2.4455133825540543e-03</internalNodes>
          <leafValues>
            4.1634309291839600e-01 -1.5671481192111969e-01</leafValues></_>
        <_>
          <internalNodes>
            0 -1 197 4.3577264295890927e-04</internalNodes>
          <leafValues>
            -5.0601649284362793e-01 1.0044597834348679e-01</leafValues></_>
        <_>
          <internalNodes>
            0 -1 55 1.0018764063715935e-02</internalNodes>
          <leafValues>
            -3.8227987289428711e-01 1.3864207267761230e-01</leafValues></_>
        <_>
          <internalNodes>
            0 -1 184 3.7093430757522583e-02</internalNodes>
          <leafValues>
            1.2016689777374268e-01 -4.6745553612709045e-01</leafValues></_>
        <_>
          <internalNodes>
            0 -1 163 5.4696984589099884e-03</internalNodes>
          <leafValues>
            -3.8470733165740967e-01 1.2860754132270813e-01</leafValues></_>
        <_>
          <internalNodes>
            0 -1 7 1.3088028877973557e-02</internalNodes>
          <leafValues>
            -1.5243783593177795e-01 4.9578657746315002e-01</leafValues></_>
        <_>
          <internalNodes>
            0 -1 219 1.2823777273297310e-02</internalNodes>
          <leafValues>
            -4.9730890989303589e-01 1.1053689569234848e-01</leafValues></_>
        <_>
          <internalNodes>
            0 -1 102 2.2100526839494705e-02</internalNodes>
          <leafValues>
            -9.9986568093299866e-02 5.8513271808624268e-01</leafValues></_>
        <_>
          <internalNodes>
            0 -1 180 2.0825691521167755e-02</internalNodes>
          <leafValues>
            1.2666080892086029e-01 -4.8145213723182678e-01</leafValues></_>
        <_>
          <internalNodes>
            0 -1 87 2.1565906703472137e-02</internalNodes>
          <leafValues>
            1.7189981043338776e-01 -3.3832675218582153e-01</leafValues></_>
        <_>
          <internalNodes>
            0 -1 13 5.1995269022881985e-03</internalNodes>
          <leafValues>
            -2.5461801886558533e-01 2.3496501147747040e-01</leafValues></_></weakClassifiers></_>
    <!-- stage 19 -->
    <_>
      <maxWeakCount>25</maxWeakCount>
      <stageThreshold>-1.5584081411361694e+00</stageThreshold>
      <weakClassifiers>
        <_>
          <internalNodes>
