<?xml version="1.0"?>
<opencv_storage>
<stage5>
  <maxWeakCount>18</maxWeakCount>
  <stageThreshold>-1.7067191600799561e+00</stageThreshold>
  <weakClassifiers>
    <_>
      <internalNodes>
        0 -1 228 8.7517581880092621e-02</internalNodes>
      <leafValues>
        -7.2905528545379639e-01 2.2077922523021698e-01</leafValues></_>
    <_>
      <internalNodes>
        0 -1 235 9.6218079328536987e-02</internalNodes>
      <leafValues>
        -3.7536194920539856e-01 4.7361561655998230e-01</leafValues></_>
    <_>
      <internalNodes>
        0 -1 250 9.5548525452613831e-02</internalNodes>
      <leafValues>
        -9.1387853026390076e-02 8.4354305267333984e-01</leafValues></_>
    <_>
      <internalNodes>
        0 -1 263 1.9091721624135971e-02</internalNodes>
      <leafValues>
        -4.4986513257026672e-01 2.1130788326263428e-01</leafValues></_>
    <_>
      <internalNodes>
        0 -1 162 4.3115887790918350e-02</internalNodes>
      <leafValues>
        1.2104515731334686e-01 -5.7188063859939575e-01</leafValues></_>
    <_>
      <internalNodes>
        0 -1 40 2.7527898550033569e-02</internalNodes>
      <leafValues>
        2.5322768092155457e-01 -3.9585644006729126e-01</leafValues></_>
    <_>
      <internalNodes>
        0 -1 249 7.2604222223162651e-03</internalNodes>
      <leafValues>
        2.1403054893016815e-01 -2.8594186902046204e-01</leafValues></_>
    <_>
      <internalNodes>
        0 -1 259 6.8956777453422546e-02</internalNodes>
      <leafValues>
        -7.2419263422489166e-02 7.8182333707809448e-01</leafValues></_>
    <_>
      <internalNodes>
        0 -1 109 1.3272368907928467e-01</internalNodes>
      <leafValues>
        -9.2179045081138611e-02 6.8272393941879272e-01</leafValues></_>
    <_>
      <internalNodes>
        0 -1 309 7.8912653028964996e-02</internalNodes>
      <leafValues>
        -8.7021507322788239e-02 6.8157070875167847e-01</leafValues></_>
    <_>
      <internalNodes>
        0 -1 307 1.4434280991554260e-01</internalNodes>
      <leafValues>
        -7.8524827957153320e-02 7.3111140727996826e-01</leafValues></_>
    <_>
      <internalNodes>
        0 -1 58 6.3905134797096252e-02</internalNodes>
      <leafValues>
        7.1386002004146576e-02 -1.</leafValues></_>
    <_>
      <internalNodes>
        0 -1 9 3.5368598997592926e-02</internalNodes>
      <leafValues>
        1.5975093841552734e-01 -3.9239287376403809e-01</leafValues></_>
    <_>
      <internalNodes>
        0 -1 39 1.5384652651846409e-03</internalNodes>
      <leafValues>
        -6.5488767623901367e-01 9.0382568538188934e-02</leafValues></_>
    <_>
      <internalNodes>
        0 -1 322 6.6411688923835754e-02</internalNodes>
      <leafValues>
        -1.1269822716712952e-01 7.8910654783248901e-01</leafValues></_>
    <_>
      <internalNodes>
        0 -1 118 9.0913690626621246e-02</internalNodes>
      <leafValues>
        -1.2396813184022903e-01 4.7252649068832397e-01</leafValues></_>
    <_>
      <internalNodes>
        0 -1 189 5.9811521321535110e-02</internalNodes>
      <leafValues>
        8.5259683430194855e-02 -8.1648641824722290e-01</leafValues></_>
    <_>
      <internalNodes>
        0 -1 282 7.5389130506664515e-04</internalNodes>
      <leafValues>
        -6.7191994190216064e-01 6.2823228538036346e-02</leafValues></_></weakClassifiers></stage5>
</opencv_storage>
